digraph Tree {
node [shape=box, style="filled, rounded", color="black", fontname=helvetica] ;
edge [fontname=helvetica] ;
0 [label="diversity <= 0.0\ngini = 0.5\nsamples = 11835\nvalue = [9391, 9378]\nclass = Fake", fillcolor="#e5813900"] ;
1 [label="diversity <= 0.0\ngini = 0.0\nsamples = 205\nvalue = [7, 310]\nclass = Real", fillcolor="#399de5f9"] ;
0 -> 1 [labeldistance=2.5, labelangle=45, headlabel="True"] ;
2 [label="gini = 0.0\nsamples = 158\nvalue = [0, 245]\nclass = Real", fillcolor="#399de5ff"] ;
1 -> 2 ;
3 [label="diversity <= 0.0\ngini = 0.2\nsamples = 47\nvalue = [7, 65]\nclass = Real", fillcolor="#399de5e4"] ;
1 -> 3 ;
4 [label="gini = 0.0\nsamples = 1\nvalue = [4, 0]\nclass = Fake", fillcolor="#e58139ff"] ;
3 -> 4 ;
5 [label="diversity <= 0.0\ngini = 0.1\nsamples = 46\nvalue = [3, 65]\nclass = Real", fillcolor="#399de5f3"] ;
3 -> 5 ;
6 [label="gini = 0.0\nsamples = 15\nvalue = [0, 25]\nclass = Real", fillcolor="#399de5ff"] ;
5 -> 6 ;
7 [label="diversity <= 0.0\ngini = 0.1\nsamples = 31\nvalue = [3, 40]\nclass = Real", fillcolor="#399de5ec"] ;
5 -> 7 ;
8 [label="gini = 0.5\nsamples = 2\nvalue = [1, 1]\nclass = Fake", fillcolor="#e5813900"] ;
7 -> 8 ;
9 [label="diversity <= 0.0\ngini = 0.1\nsamples = 29\nvalue = [2, 39]\nclass = Real", fillcolor="#399de5f2"] ;
7 -> 9 ;
10 [label="gini = 0.0\nsamples = 10\nvalue = [0, 14]\nclass = Real", fillcolor="#399de5ff"] ;
9 -> 10 ;
11 [label="diversity <= 0.0\ngini = 0.1\nsamples = 19\nvalue = [2, 25]\nclass = Real", fillcolor="#399de5eb"] ;
9 -> 11 ;
12 [label="gini = 0.0\nsamples = 1\nvalue = [1, 0]\nclass = Fake", fillcolor="#e58139ff"] ;
11 -> 12 ;
13 [label="diversity <= 0.0\ngini = 0.1\nsamples = 18\nvalue = [1, 25]\nclass = Real", fillcolor="#399de5f5"] ;
11 -> 13 ;
14 [label="gini = 0.0\nsamples = 12\nvalue = [0, 17]\nclass = Real", fillcolor="#399de5ff"] ;
13 -> 14 ;
15 [label="diversity <= 0.0\ngini = 0.2\nsamples = 6\nvalue = [1, 8]\nclass = Real", fillcolor="#399de5df"] ;
13 -> 15 ;
16 [label="gini = 0.0\nsamples = 1\nvalue = [1, 0]\nclass = Fake", fillcolor="#e58139ff"] ;
15 -> 16 ;
17 [label="gini = 0.0\nsamples = 5\nvalue = [0, 8]\nclass = Real", fillcolor="#399de5ff"] ;
15 -> 17 ;
18 [label="diversity <= 0.1\ngini = 0.5\nsamples = 11630\nvalue = [9384, 9068]\nclass = Fake", fillcolor="#e5813909"] ;
0 -> 18 [labeldistance=2.5, labelangle=-45, headlabel="False"] ;
19 [label="diversity <= 0.1\ngini = 0.5\nsamples = 2334\nvalue = [2403, 1328]\nclass = Fake", fillcolor="#e5813972"] ;
18 -> 19 ;
20 [label="diversity <= 0.1\ngini = 0.5\nsamples = 426\nvalue = [315, 337]\nclass = Real", fillcolor="#399de511"] ;
19 -> 20 ;
21 [label="diversity <= 0.1\ngini = 0.5\nsamples = 334\nvalue = [270, 248]\nclass = Fake", fillcolor="#e5813915"] ;
20 -> 21 ;
22 [label="diversity <= 0.1\ngini = 0.5\nsamples = 210\nvalue = [146, 183]\nclass = Real", fillcolor="#399de534"] ;
21 -> 22 ;
23 [label="diversity <= 0.1\ngini = 0.5\nsamples = 149\nvalue = [121, 112]\nclass = Fake", fillcolor="#e5813913"] ;
22 -> 23 ;
24 [label="diversity <= 0.1\ngini = 0.5\nsamples = 114\nvalue = [72, 103]\nclass = Real", fillcolor="#399de54d"] ;
23 -> 24 ;
25 [label="diversity <= 0.1\ngini = 0.5\nsamples = 98\nvalue = [67, 84]\nclass = Real", fillcolor="#399de534"] ;
24 -> 25 ;
26 [label="diversity <= 0.1\ngini = 0.5\nsamples = 85\nvalue = [54, 80]\nclass = Real", fillcolor="#399de553"] ;
25 -> 26 ;
27 [label="diversity <= 0.1\ngini = 0.5\nsamples = 59\nvalue = [45, 54]\nclass = Real", fillcolor="#399de52a"] ;
26 -> 27 ;
28 [label="diversity <= 0.0\ngini = 0.5\nsamples = 47\nvalue = [29, 51]\nclass = Real", fillcolor="#399de56e"] ;
27 -> 28 ;
29 [label="diversity <= 0.0\ngini = 0.5\nsamples = 18\nvalue = [18, 17]\nclass = Fake", fillcolor="#e581390e"] ;
28 -> 29 ;
30 [label="diversity <= 0.0\ngini = 0.5\nsamples = 6\nvalue = [4, 7]\nclass = Real", fillcolor="#399de56d"] ;
29 -> 30 ;
31 [label="gini = 0.5\nsamples = 4\nvalue = [4, 4]\nclass = Fake", fillcolor="#e5813900"] ;
30 -> 31 ;
32 [label="gini = 0.0\nsamples = 2\nvalue = [0, 3]\nclass = Real", fillcolor="#399de5ff"] ;
30 -> 32 ;
33 [label="diversity <= 0.0\ngini = 0.5\nsamples = 12\nvalue = [14, 10]\nclass = Fake", fillcolor="#e5813949"] ;
29 -> 33 ;
34 [label="gini = 0.0\nsamples = 1\nvalue = [1, 0]\nclass = Fake", fillcolor="#e58139ff"] ;
33 -> 34 ;
35 [label="diversity <= 0.0\ngini = 0.5\nsamples = 11\nvalue = [13, 10]\nclass = Fake", fillcolor="#e581393b"] ;
33 -> 35 ;
36 [label="gini = 0.0\nsamples = 1\nvalue = [0, 1]\nclass = Real", fillcolor="#399de5ff"] ;
35 -> 36 ;
37 [label="diversity <= 0.0\ngini = 0.5\nsamples = 10\nvalue = [13, 9]\nclass = Fake", fillcolor="#e581394e"] ;
35 -> 37 ;
38 [label="gini = 0.5\nsamples = 5\nvalue = [5, 3]\nclass = Fake", fillcolor="#e5813966"] ;
37 -> 38 ;
39 [label="diversity <= 0.0\ngini = 0.5\nsamples = 5\nvalue = [8, 6]\nclass = Fake", fillcolor="#e5813940"] ;
37 -> 39 ;
40 [label="gini = 0.5\nsamples = 2\nvalue = [2, 2]\nclass = Fake", fillcolor="#e5813900"] ;
39 -> 40 ;
41 [label="gini = 0.5\nsamples = 3\nvalue = [6, 4]\nclass = Fake", fillcolor="#e5813955"] ;
39 -> 41 ;
42 [label="diversity <= 0.1\ngini = 0.4\nsamples = 29\nvalue = [11, 34]\nclass = Real", fillcolor="#399de5ac"] ;
28 -> 42 ;
43 [label="diversity <= 0.0\ngini = 0.4\nsamples = 26\nvalue = [11, 28]\nclass = Real", fillcolor="#399de59b"] ;
42 -> 43 ;
44 [label="diversity <= 0.0\ngini = 0.3\nsamples = 20\nvalue = [6, 25]\nclass = Real", fillcolor="#399de5c2"] ;
43 -> 44 ;
45 [label="gini = 0.0\nsamples = 3\nvalue = [0, 4]\nclass = Real", fillcolor="#399de5ff"] ;
44 -> 45 ;
46 [label="diversity <= 0.0\ngini = 0.3\nsamples = 17\nvalue = [6, 21]\nclass = Real", fillcolor="#399de5b6"] ;
44 -> 46 ;
47 [label="gini = 0.5\nsamples = 4\nvalue = [3, 3]\nclass = Fake", fillcolor="#e5813900"] ;
46 -> 47 ;
48 [label="diversity <= 0.0\ngini = 0.2\nsamples = 13\nvalue = [3, 18]\nclass = Real", fillcolor="#399de5d4"] ;
46 -> 48 ;
49 [label="diversity <= 0.0\ngini = 0.1\nsamples = 8\nvalue = [1, 13]\nclass = Real", fillcolor="#399de5eb"] ;
48 -> 49 ;
50 [label="diversity <= 0.0\ngini = 0.3\nsamples = 4\nvalue = [1, 5]\nclass = Real", fillcolor="#399de5cc"] ;
49 -> 50 ;
51 [label="gini = 0.0\nsamples = 3\nvalue = [0, 5]\nclass = Real", fillcolor="#399de5ff"] ;
50 -> 51 ;
52 [label="gini = 0.0\nsamples = 1\nvalue = [1, 0]\nclass = Fake", fillcolor="#e58139ff"] ;
50 -> 52 ;
53 [label="gini = 0.0\nsamples = 4\nvalue = [0, 8]\nclass = Real", fillcolor="#399de5ff"] ;
49 -> 53 ;
54 [label="diversity <= 0.0\ngini = 0.4\nsamples = 5\nvalue = [2, 5]\nclass = Real", fillcolor="#399de599"] ;
48 -> 54 ;
55 [label="gini = 0.5\nsamples = 3\nvalue = [2, 3]\nclass = Real", fillcolor="#399de555"] ;
54 -> 55 ;
56 [label="gini = 0.0\nsamples = 2\nvalue = [0, 2]\nclass = Real", fillcolor="#399de5ff"] ;
54 -> 56 ;
57 [label="diversity <= 0.0\ngini = 0.5\nsamples = 6\nvalue = [5, 3]\nclass = Fake", fillcolor="#e5813966"] ;
43 -> 57 ;
58 [label="gini = 0.0\nsamples = 2\nvalue = [2, 0]\nclass = Fake", fillcolor="#e58139ff"] ;
57 -> 58 ;
59 [label="gini = 0.5\nsamples = 4\nvalue = [3, 3]\nclass = Fake", fillcolor="#e5813900"] ;
57 -> 59 ;
60 [label="gini = 0.0\nsamples = 3\nvalue = [0, 6]\nclass = Real", fillcolor="#399de5ff"] ;
42 -> 60 ;
61 [label="diversity <= 0.1\ngini = 0.3\nsamples = 12\nvalue = [16, 3]\nclass = Fake", fillcolor="#e58139cf"] ;
27 -> 61 ;
62 [label="gini = 0.0\nsamples = 1\nvalue = [3, 0]\nclass = Fake", fillcolor="#e58139ff"] ;
61 -> 62 ;
63 [label="diversity <= 0.1\ngini = 0.3\nsamples = 11\nvalue = [13, 3]\nclass = Fake", fillcolor="#e58139c4"] ;
61 -> 63 ;
64 [label="gini = 0.0\nsamples = 1\nvalue = [0, 1]\nclass = Real", fillcolor="#399de5ff"] ;
63 -> 64 ;
65 [label="diversity <= 0.1\ngini = 0.2\nsamples = 10\nvalue = [13, 2]\nclass = Fake", fillcolor="#e58139d8"] ;
63 -> 65 ;
66 [label="gini = 0.3\nsamples = 8\nvalue = [10, 2]\nclass = Fake", fillcolor="#e58139cc"] ;
65 -> 66 ;
67 [label="gini = 0.0\nsamples = 2\nvalue = [3, 0]\nclass = Fake", fillcolor="#e58139ff"] ;
65 -> 67 ;
68 [label="diversity <= 0.1\ngini = 0.4\nsamples = 26\nvalue = [9, 26]\nclass = Real", fillcolor="#399de5a7"] ;
26 -> 68 ;
69 [label="diversity <= 0.1\ngini = 0.3\nsamples = 22\nvalue = [7, 24]\nclass = Real", fillcolor="#399de5b5"] ;
68 -> 69 ;
70 [label="diversity <= 0.1\ngini = 0.4\nsamples = 17\nvalue = [7, 16]\nclass = Real", fillcolor="#399de58f"] ;
69 -> 70 ;
71 [label="diversity <= 0.1\ngini = 0.3\nsamples = 14\nvalue = [4, 14]\nclass = Real", fillcolor="#399de5b6"] ;
70 -> 71 ;
72 [label="diversity <= 0.1\ngini = 0.4\nsamples = 12\nvalue = [4, 11]\nclass = Real", fillcolor="#399de5a2"] ;
71 -> 72 ;
73 [label="diversity <= 0.1\ngini = 0.2\nsamples = 6\nvalue = [1, 6]\nclass = Real", fillcolor="#399de5d4"] ;
72 -> 73 ;
74 [label="diversity <= 0.1\ngini = 0.4\nsamples = 3\nvalue = [1, 3]\nclass = Real", fillcolor="#399de5aa"] ;
73 -> 74 ;
75 [label="gini = 0.0\nsamples = 1\nvalue = [0, 2]\nclass = Real", fillcolor="#399de5ff"] ;
74 -> 75 ;
76 [label="gini = 0.5\nsamples = 2\nvalue = [1, 1]\nclass = Fake", fillcolor="#e5813900"] ;
74 -> 76 ;
77 [label="gini = 0.0\nsamples = 3\nvalue = [0, 3]\nclass = Real", fillcolor="#399de5ff"] ;
73 -> 77 ;
78 [label="diversity <= 0.1\ngini = 0.5\nsamples = 6\nvalue = [3, 5]\nclass = Real", fillcolor="#399de566"] ;
72 -> 78 ;
79 [label="gini = 0.4\nsamples = 2\nvalue = [2, 1]\nclass = Fake", fillcolor="#e581397f"] ;
78 -> 79 ;
80 [label="gini = 0.3\nsamples = 4\nvalue = [1, 4]\nclass = Real", fillcolor="#399de5bf"] ;
78 -> 80 ;
81 [label="gini = 0.0\nsamples = 2\nvalue = [0, 3]\nclass = Real", fillcolor="#399de5ff"] ;
71 -> 81 ;
82 [label="gini = 0.5\nsamples = 3\nvalue = [3, 2]\nclass = Fake", fillcolor="#e5813955"] ;
70 -> 82 ;
83 [label="gini = 0.0\nsamples = 5\nvalue = [0, 8]\nclass = Real", fillcolor="#399de5ff"] ;
69 -> 83 ;
84 [label="diversity <= 0.1\ngini = 0.5\nsamples = 4\nvalue = [2, 2]\nclass = Fake", fillcolor="#e5813900"] ;
68 -> 84 ;
85 [label="gini = 0.0\nsamples = 1\nvalue = [1, 0]\nclass = Fake", fillcolor="#e58139ff"] ;
84 -> 85 ;
86 [label="diversity <= 0.1\ngini = 0.4\nsamples = 3\nvalue = [1, 2]\nclass = Real", fillcolor="#399de57f"] ;
84 -> 86 ;
87 [label="gini = 0.5\nsamples = 2\nvalue = [1, 1]\nclass = Fake", fillcolor="#e5813900"] ;
86 -> 87 ;
88 [label="gini = 0.0\nsamples = 1\nvalue = [0, 1]\nclass = Real", fillcolor="#399de5ff"] ;
86 -> 88 ;
89 [label="diversity <= 0.1\ngini = 0.4\nsamples = 13\nvalue = [13, 4]\nclass = Fake", fillcolor="#e58139b1"] ;
25 -> 89 ;
90 [label="gini = 0.0\nsamples = 2\nvalue = [2, 0]\nclass = Fake", fillcolor="#e58139ff"] ;
89 -> 90 ;
91 [label="diversity <= 0.1\ngini = 0.4\nsamples = 11\nvalue = [11, 4]\nclass = Fake", fillcolor="#e58139a2"] ;
89 -> 91 ;
92 [label="gini = 0.4\nsamples = 8\nvalue = [6, 3]\nclass = Fake", fillcolor="#e581397f"] ;
91 -> 92 ;
93 [label="gini = 0.3\nsamples = 3\nvalue = [5, 1]\nclass = Fake", fillcolor="#e58139cc"] ;
91 -> 93 ;
94 [label="diversity <= 0.1\ngini = 0.3\nsamples = 16\nvalue = [5, 19]\nclass = Real", fillcolor="#399de5bc"] ;
24 -> 94 ;
95 [label="gini = 0.0\nsamples = 2\nvalue = [0, 4]\nclass = Real", fillcolor="#399de5ff"] ;
94 -> 95 ;
96 [label="diversity <= 0.1\ngini = 0.4\nsamples = 14\nvalue = [5, 15]\nclass = Real", fillcolor="#399de5aa"] ;
94 -> 96 ;
97 [label="diversity <= 0.1\ngini = 0.3\nsamples = 9\nvalue = [3, 11]\nclass = Real", fillcolor="#399de5b9"] ;
96 -> 97 ;
98 [label="diversity <= 0.1\ngini = 0.4\nsamples = 8\nvalue = [3, 9]\nclass = Real", fillcolor="#399de5aa"] ;
97 -> 98 ;
99 [label="gini = 0.3\nsamples = 3\nvalue = [1, 4]\nclass = Real", fillcolor="#399de5bf"] ;
98 -> 99 ;
100 [label="gini = 0.4\nsamples = 5\nvalue = [2, 5]\nclass = Real", fillcolor="#399de599"] ;
98 -> 100 ;
101 [label="gini = 0.0\nsamples = 1\nvalue = [0, 2]\nclass = Real", fillcolor="#399de5ff"] ;
97 -> 101 ;
102 [label="gini = 0.4\nsamples = 5\nvalue = [2, 4]\nclass = Real", fillcolor="#399de57f"] ;
96 -> 102 ;
103 [label="diversity <= 0.1\ngini = 0.3\nsamples = 35\nvalue = [49, 9]\nclass = Fake", fillcolor="#e58139d0"] ;
23 -> 103 ;
104 [label="diversity <= 0.1\ngini = 0.4\nsamples = 21\nvalue = [22, 9]\nclass = Fake", fillcolor="#e5813997"] ;
103 -> 104 ;
105 [label="gini = 0.0\nsamples = 8\nvalue = [11, 0]\nclass = Fake", fillcolor="#e58139ff"] ;
104 -> 105 ;
106 [label="diversity <= 0.1\ngini = 0.5\nsamples = 13\nvalue = [11, 9]\nclass = Fake", fillcolor="#e581392e"] ;
104 -> 106 ;
107 [label="gini = 0.0\nsamples = 1\nvalue = [0, 2]\nclass = Real", fillcolor="#399de5ff"] ;
106 -> 107 ;
108 [label="diversity <= 0.1\ngini = 0.5\nsamples = 12\nvalue = [11, 7]\nclass = Fake", fillcolor="#e581395d"] ;
106 -> 108 ;
109 [label="diversity <= 0.1\ngini = 0.4\nsamples = 5\nvalue = [6, 2]\nclass = Fake", fillcolor="#e58139aa"] ;
108 -> 109 ;
110 [label="gini = 0.5\nsamples = 3\nvalue = [3, 2]\nclass = Fake", fillcolor="#e5813955"] ;
109 -> 110 ;
111 [label="gini = 0.0\nsamples = 2\nvalue = [3, 0]\nclass = Fake", fillcolor="#e58139ff"] ;
109 -> 111 ;
112 [label="diversity <= 0.1\ngini = 0.5\nsamples = 7\nvalue = [5, 5]\nclass = Fake", fillcolor="#e5813900"] ;
108 -> 112 ;
113 [label="gini = 0.0\nsamples = 1\nvalue = [0, 1]\nclass = Real", fillcolor="#399de5ff"] ;
112 -> 113 ;
114 [label="gini = 0.5\nsamples = 6\nvalue = [5, 4]\nclass = Fake", fillcolor="#e5813933"] ;
112 -> 114 ;
115 [label="gini = 0.0\nsamples = 14\nvalue = [27, 0]\nclass = Fake", fillcolor="#e58139ff"] ;
103 -> 115 ;
116 [label="diversity <= 0.1\ngini = 0.4\nsamples = 61\nvalue = [25, 71]\nclass = Real", fillcolor="#399de5a5"] ;
22 -> 116 ;
117 [label="diversity <= 0.1\ngini = 0.1\nsamples = 32\nvalue = [3, 48]\nclass = Real", fillcolor="#399de5ef"] ;
116 -> 117 ;
118 [label="diversity <= 0.1\ngini = 0.3\nsamples = 7\nvalue = [2, 11]\nclass = Real", fillcolor="#399de5d1"] ;
117 -> 118 ;
119 [label="gini = 0.0\nsamples = 5\nvalue = [0, 11]\nclass = Real", fillcolor="#399de5ff"] ;
118 -> 119 ;
120 [label="gini = 0.0\nsamples = 2\nvalue = [2, 0]\nclass = Fake", fillcolor="#e58139ff"] ;
118 -> 120 ;
121 [label="diversity <= 0.1\ngini = 0.1\nsamples = 25\nvalue = [1, 37]\nclass = Real", fillcolor="#399de5f8"] ;
117 -> 121 ;
122 [label="gini = 0.0\nsamples = 13\nvalue = [0, 20]\nclass = Real", fillcolor="#399de5ff"] ;
121 -> 122 ;
123 [label="diversity <= 0.1\ngini = 0.1\nsamples = 12\nvalue = [1, 17]\nclass = Real", fillcolor="#399de5f0"] ;
121 -> 123 ;
124 [label="gini = 0.3\nsamples = 4\nvalue = [1, 5]\nclass = Real", fillcolor="#399de5cc"] ;
123 -> 124 ;
125 [label="gini = 0.0\nsamples = 8\nvalue = [0, 12]\nclass = Real", fillcolor="#399de5ff"] ;
123 -> 125 ;
126 [label="diversity <= 0.1\ngini = 0.5\nsamples = 29\nvalue = [22, 23]\nclass = Real", fillcolor="#399de50b"] ;
116 -> 126 ;
127 [label="diversity <= 0.1\ngini = 0.3\nsamples = 10\nvalue = [11, 2]\nclass = Fake", fillcolor="#e58139d1"] ;
126 -> 127 ;
128 [label="diversity <= 0.1\ngini = 0.3\nsamples = 7\nvalue = [7, 2]\nclass = Fake", fillcolor="#e58139b6"] ;
127 -> 128 ;
129 [label="gini = 0.2\nsamples = 5\nvalue = [6, 1]\nclass = Fake", fillcolor="#e58139d4"] ;
128 -> 129 ;
130 [label="gini = 0.5\nsamples = 2\nvalue = [1, 1]\nclass = Fake", fillcolor="#e5813900"] ;
128 -> 130 ;
131 [label="gini = 0.0\nsamples = 3\nvalue = [4, 0]\nclass = Fake", fillcolor="#e58139ff"] ;
127 -> 131 ;
132 [label="diversity <= 0.1\ngini = 0.5\nsamples = 19\nvalue = [11, 21]\nclass = Real", fillcolor="#399de579"] ;
126 -> 132 ;
133 [label="diversity <= 0.1\ngini = 0.5\nsamples = 9\nvalue = [6, 7]\nclass = Real", fillcolor="#399de524"] ;
132 -> 133 ;
134 [label="diversity <= 0.1\ngini = 0.4\nsamples = 8\nvalue = [3, 7]\nclass = Real", fillcolor="#399de592"] ;
133 -> 134 ;
135 [label="gini = 0.0\nsamples = 1\nvalue = [0, 1]\nclass = Real", fillcolor="#399de5ff"] ;
134 -> 135 ;
136 [label="gini = 0.4\nsamples = 7\nvalue = [3, 6]\nclass = Real", fillcolor="#399de57f"] ;
134 -> 136 ;
137 [label="gini = 0.0\nsamples = 1\nvalue = [3, 0]\nclass = Fake", fillcolor="#e58139ff"] ;
133 -> 137 ;
138 [label="diversity <= 0.1\ngini = 0.4\nsamples = 10\nvalue = [5, 14]\nclass = Real", fillcolor="#399de5a4"] ;
132 -> 138 ;
139 [label="diversity <= 0.1\ngini = 0.2\nsamples = 5\nvalue = [1, 10]\nclass = Real", fillcolor="#399de5e6"] ;
138 -> 139 ;
140 [label="gini = 0.0\nsamples = 2\nvalue = [0, 6]\nclass = Real", fillcolor="#399de5ff"] ;
139 -> 140 ;
141 [label="diversity <= 0.1\ngini = 0.3\nsamples = 3\nvalue = [1, 4]\nclass = Real", fillcolor="#399de5bf"] ;
139 -> 141 ;
142 [label="gini = 0.4\nsamples = 2\nvalue = [1, 2]\nclass = Real", fillcolor="#399de57f"] ;
141 -> 142 ;
143 [label="gini = 0.0\nsamples = 1\nvalue = [0, 2]\nclass = Real", fillcolor="#399de5ff"] ;
141 -> 143 ;
144 [label="gini = 0.5\nsamples = 5\nvalue = [4, 4]\nclass = Fake", fillcolor="#e5813900"] ;
138 -> 144 ;
145 [label="diversity <= 0.1\ngini = 0.5\nsamples = 124\nvalue = [124, 65]\nclass = Fake", fillcolor="#e5813979"] ;
21 -> 145 ;
146 [label="diversity <= 0.1\ngini = 0.3\nsamples = 83\nvalue = [93, 27]\nclass = Fake", fillcolor="#e58139b5"] ;
145 -> 146 ;
147 [label="diversity <= 0.1\ngini = 0.5\nsamples = 47\nvalue = [37, 25]\nclass = Fake", fillcolor="#e5813953"] ;
146 -> 147 ;
148 [label="diversity <= 0.1\ngini = 0.3\nsamples = 29\nvalue = [34, 8]\nclass = Fake", fillcolor="#e58139c3"] ;
147 -> 148 ;
149 [label="diversity <= 0.1\ngini = 0.5\nsamples = 13\nvalue = [13, 7]\nclass = Fake", fillcolor="#e5813976"] ;
148 -> 149 ;
150 [label="diversity <= 0.1\ngini = 0.4\nsamples = 12\nvalue = [13, 5]\nclass = Fake", fillcolor="#e581399d"] ;
149 -> 150 ;
151 [label="gini = 0.0\nsamples = 1\nvalue = [1, 0]\nclass = Fake", fillcolor="#e58139ff"] ;
150 -> 151 ;
152 [label="diversity <= 0.1\ngini = 0.4\nsamples = 11\nvalue = [12, 5]\nclass = Fake", fillcolor="#e5813995"] ;
150 -> 152 ;
153 [label="gini = 0.4\nsamples = 3\nvalue = [2, 1]\nclass = Fake", fillcolor="#e581397f"] ;
152 -> 153 ;
154 [label="gini = 0.4\nsamples = 8\nvalue = [10, 4]\nclass = Fake", fillcolor="#e5813999"] ;
152 -> 154 ;
155 [label="gini = 0.0\nsamples = 1\nvalue = [0, 2]\nclass = Real", fillcolor="#399de5ff"] ;
149 -> 155 ;
156 [label="gini = 0.1\nsamples = 16\nvalue = [21, 1]\nclass = Fake", fillcolor="#e58139f3"] ;
148 -> 156 ;
157 [label="diversity <= 0.1\ngini = 0.3\nsamples = 18\nvalue = [3, 17]\nclass = Real", fillcolor="#399de5d2"] ;
147 -> 157 ;
158 [label="gini = 0.0\nsamples = 14\nvalue = [0, 16]\nclass = Real", fillcolor="#399de5ff"] ;
157 -> 158 ;
159 [label="diversity <= 0.1\ngini = 0.4\nsamples = 4\nvalue = [3, 1]\nclass = Fake", fillcolor="#e58139aa"] ;
157 -> 159 ;
160 [label="gini = 0.0\nsamples = 3\nvalue = [3, 0]\nclass = Fake", fillcolor="#e58139ff"] ;
159 -> 160 ;
161 [label="gini = 0.0\nsamples = 1\nvalue = [0, 1]\nclass = Real", fillcolor="#399de5ff"] ;
159 -> 161 ;
162 [label="diversity <= 0.1\ngini = 0.1\nsamples = 36\nvalue = [56, 2]\nclass = Fake", fillcolor="#e58139f6"] ;
146 -> 162 ;
163 [label="diversity <= 0.1\ngini = 0.1\nsamples = 10\nvalue = [16, 1]\nclass = Fake", fillcolor="#e58139ef"] ;
162 -> 163 ;
164 [label="gini = 0.0\nsamples = 6\nvalue = [9, 0]\nclass = Fake", fillcolor="#e58139ff"] ;
163 -> 164 ;
165 [label="gini = 0.2\nsamples = 4\nvalue = [7, 1]\nclass = Fake", fillcolor="#e58139db"] ;
163 -> 165 ;
166 [label="diversity <= 0.1\ngini = 0.0\nsamples = 26\nvalue = [40, 1]\nclass = Fake", fillcolor="#e58139f9"] ;
162 -> 166 ;
167 [label="gini = 0.0\nsamples = 2\nvalue = [3, 0]\nclass = Fake", fillcolor="#e58139ff"] ;
166 -> 167 ;
168 [label="gini = 0.1\nsamples = 24\nvalue = [37, 1]\nclass = Fake", fillcolor="#e58139f8"] ;
166 -> 168 ;
169 [label="diversity <= 0.1\ngini = 0.5\nsamples = 41\nvalue = [31, 38]\nclass = Real", fillcolor="#399de52f"] ;
145 -> 169 ;
170 [label="diversity <= 0.1\ngini = 0.4\nsamples = 35\nvalue = [19, 37]\nclass = Real", fillcolor="#399de57c"] ;
169 -> 170 ;
171 [label="gini = 0.0\nsamples = 7\nvalue = [0, 14]\nclass = Real", fillcolor="#399de5ff"] ;
170 -> 171 ;
172 [label="diversity <= 0.1\ngini = 0.5\nsamples = 28\nvalue = [19, 23]\nclass = Real", fillcolor="#399de52c"] ;
170 -> 172 ;
173 [label="diversity <= 0.1\ngini = 0.5\nsamples = 27\nvalue = [19, 22]\nclass = Real", fillcolor="#399de523"] ;
172 -> 173 ;
174 [label="diversity <= 0.1\ngini = 0.5\nsamples = 14\nvalue = [8, 12]\nclass = Real", fillcolor="#399de555"] ;
173 -> 174 ;
175 [label="gini = 0.5\nsamples = 12\nvalue = [8, 10]\nclass = Real", fillcolor="#399de533"] ;
174 -> 175 ;
176 [label="gini = 0.0\nsamples = 2\nvalue = [0, 2]\nclass = Real", fillcolor="#399de5ff"] ;
174 -> 176 ;
177 [label="diversity <= 0.1\ngini = 0.5\nsamples = 13\nvalue = [11, 10]\nclass = Fake", fillcolor="#e5813917"] ;
173 -> 177 ;
178 [label="gini = 0.0\nsamples = 2\nvalue = [4, 0]\nclass = Fake", fillcolor="#e58139ff"] ;
177 -> 178 ;
179 [label="diversity <= 0.1\ngini = 0.5\nsamples = 11\nvalue = [7, 10]\nclass = Real", fillcolor="#399de54d"] ;
177 -> 179 ;
180 [label="gini = 0.0\nsamples = 3\nvalue = [0, 4]\nclass = Real", fillcolor="#399de5ff"] ;
179 -> 180 ;
181 [label="diversity <= 0.1\ngini = 0.5\nsamples = 8\nvalue = [7, 6]\nclass = Fake", fillcolor="#e5813924"] ;
179 -> 181 ;
182 [label="gini = 0.4\nsamples = 4\nvalue = [3, 1]\nclass = Fake", fillcolor="#e58139aa"] ;
181 -> 182 ;
183 [label="diversity <= 0.1\ngini = 0.5\nsamples = 4\nvalue = [4, 5]\nclass = Real", fillcolor="#399de533"] ;
181 -> 183 ;
184 [label="gini = 0.5\nsamples = 2\nvalue = [1, 1]\nclass = Fake", fillcolor="#e5813900"] ;
183 -> 184 ;
185 [label="gini = 0.5\nsamples = 2\nvalue = [3, 4]\nclass = Real", fillcolor="#399de540"] ;
183 -> 185 ;
186 [label="gini = 0.0\nsamples = 1\nvalue = [0, 1]\nclass = Real", fillcolor="#399de5ff"] ;
172 -> 186 ;
187 [label="diversity <= 0.1\ngini = 0.1\nsamples = 6\nvalue = [12, 1]\nclass = Fake", fillcolor="#e58139ea"] ;
169 -> 187 ;
188 [label="diversity <= 0.1\ngini = 0.4\nsamples = 2\nvalue = [3, 1]\nclass = Fake", fillcolor="#e58139aa"] ;
187 -> 188 ;
189 [label="gini = 0.0\nsamples = 1\nvalue = [3, 0]\nclass = Fake", fillcolor="#e58139ff"] ;
188 -> 189 ;
190 [label="gini = 0.0\nsamples = 1\nvalue = [0, 1]\nclass = Real", fillcolor="#399de5ff"] ;
188 -> 190 ;
191 [label="gini = 0.0\nsamples = 4\nvalue = [9, 0]\nclass = Fake", fillcolor="#e58139ff"] ;
187 -> 191 ;
192 [label="diversity <= 0.1\ngini = 0.4\nsamples = 92\nvalue = [45, 89]\nclass = Real", fillcolor="#399de57e"] ;
20 -> 192 ;
193 [label="diversity <= 0.1\ngini = 0.1\nsamples = 38\nvalue = [4, 49]\nclass = Real", fillcolor="#399de5ea"] ;
192 -> 193 ;
194 [label="gini = 0.0\nsamples = 1\nvalue = [0, 1]\nclass = Real", fillcolor="#399de5ff"] ;
193 -> 194 ;
195 [label="diversity <= 0.1\ngini = 0.1\nsamples = 37\nvalue = [4, 48]\nclass = Real", fillcolor="#399de5ea"] ;
193 -> 195 ;
196 [label="gini = 0.1\nsamples = 36\nvalue = [4, 47]\nclass = Real", fillcolor="#399de5e9"] ;
195 -> 196 ;
197 [label="gini = 0.0\nsamples = 1\nvalue = [0, 1]\nclass = Real", fillcolor="#399de5ff"] ;
195 -> 197 ;
198 [label="diversity <= 0.1\ngini = 0.5\nsamples = 54\nvalue = [41, 40]\nclass = Fake", fillcolor="#e5813906"] ;
192 -> 198 ;
199 [label="diversity <= 0.1\ngini = 0.4\nsamples = 30\nvalue = [32, 10]\nclass = Fake", fillcolor="#e58139af"] ;
198 -> 199 ;
200 [label="diversity <= 0.1\ngini = 0.2\nsamples = 12\nvalue = [15, 2]\nclass = Fake", fillcolor="#e58139dd"] ;
199 -> 200 ;
201 [label="diversity <= 0.1\ngini = 0.3\nsamples = 6\nvalue = [7, 2]\nclass = Fake", fillcolor="#e58139b6"] ;
200 -> 201 ;
202 [label="gini = 0.0\nsamples = 3\nvalue = [4, 0]\nclass = Fake", fillcolor="#e58139ff"] ;
201 -> 202 ;
203 [label="gini = 0.5\nsamples = 3\nvalue = [3, 2]\nclass = Fake", fillcolor="#e5813955"] ;
201 -> 203 ;
204 [label="gini = 0.0\nsamples = 6\nvalue = [8, 0]\nclass = Fake", fillcolor="#e58139ff"] ;
200 -> 204 ;
205 [label="diversity <= 0.1\ngini = 0.4\nsamples = 18\nvalue = [17, 8]\nclass = Fake", fillcolor="#e5813987"] ;
199 -> 205 ;
206 [label="diversity <= 0.1\ngini = 0.5\nsamples = 9\nvalue = [5, 6]\nclass = Real", fillcolor="#399de52a"] ;
205 -> 206 ;
207 [label="diversity <= 0.1\ngini = 0.5\nsamples = 8\nvalue = [5, 4]\nclass = Fake", fillcolor="#e5813933"] ;
206 -> 207 ;
208 [label="diversity <= 0.1\ngini = 0.4\nsamples = 4\nvalue = [1, 3]\nclass = Real", fillcolor="#399de5aa"] ;
207 -> 208 ;
209 [label="gini = 0.0\nsamples = 1\nvalue = [0, 1]\nclass = Real", fillcolor="#399de5ff"] ;
208 -> 209 ;
210 [label="diversity <= 0.1\ngini = 0.4\nsamples = 3\nvalue = [1, 2]\nclass = Real", fillcolor="#399de57f"] ;
208 -> 210 ;
211 [label="gini = 0.5\nsamples = 2\nvalue = [1, 1]\nclass = Fake", fillcolor="#e5813900"] ;
210 -> 211 ;
212 [label="gini = 0.0\nsamples = 1\nvalue = [0, 1]\nclass = Real", fillcolor="#399de5ff"] ;
210 -> 212 ;
213 [label="diversity <= 0.1\ngini = 0.3\nsamples = 4\nvalue = [4, 1]\nclass = Fake", fillcolor="#e58139bf"] ;
207 -> 213 ;
214 [label="gini = 0.0\nsamples = 2\nvalue = [2, 0]\nclass = Fake", fillcolor="#e58139ff"] ;
213 -> 214 ;
215 [label="diversity <= 0.1\ngini = 0.4\nsamples = 2\nvalue = [2, 1]\nclass = Fake", fillcolor="#e581397f"] ;
213 -> 215 ;
216 [label="gini = 0.0\nsamples = 1\nvalue = [0, 1]\nclass = Real", fillcolor="#399de5ff"] ;
215 -> 216 ;
217 [label="gini = 0.0\nsamples = 1\nvalue = [2, 0]\nclass = Fake", fillcolor="#e58139ff"] ;
215 -> 217 ;
218 [label="gini = 0.0\nsamples = 1\nvalue = [0, 2]\nclass = Real", fillcolor="#399de5ff"] ;
206 -> 218 ;
219 [label="diversity <= 0.1\ngini = 0.2\nsamples = 9\nvalue = [12, 2]\nclass = Fake", fillcolor="#e58139d4"] ;
205 -> 219 ;
220 [label="gini = 0.0\nsamples = 3\nvalue = [4, 0]\nclass = Fake", fillcolor="#e58139ff"] ;
219 -> 220 ;
221 [label="gini = 0.3\nsamples = 6\nvalue = [8, 2]\nclass = Fake", fillcolor="#e58139bf"] ;
219 -> 221 ;
222 [label="diversity <= 0.1\ngini = 0.4\nsamples = 24\nvalue = [9, 30]\nclass = Real", fillcolor="#399de5b3"] ;
198 -> 222 ;
223 [label="diversity <= 0.1\ngini = 0.4\nsamples = 19\nvalue = [9, 21]\nclass = Real", fillcolor="#399de592"] ;
222 -> 223 ;
224 [label="gini = 0.0\nsamples = 1\nvalue = [0, 2]\nclass = Real", fillcolor="#399de5ff"] ;
223 -> 224 ;
225 [label="gini = 0.4\nsamples = 18\nvalue = [9, 19]\nclass = Real", fillcolor="#399de586"] ;
223 -> 225 ;
226 [label="gini = 0.0\nsamples = 5\nvalue = [0, 9]\nclass = Real", fillcolor="#399de5ff"] ;
222 -> 226 ;
227 [label="diversity <= 0.1\ngini = 0.4\nsamples = 1908\nvalue = [2088, 991]\nclass = Fake", fillcolor="#e5813986"] ;
19 -> 227 ;
228 [label="diversity <= 0.1\ngini = 0.4\nsamples = 1119\nvalue = [1333, 460]\nclass = Fake", fillcolor="#e58139a7"] ;
227 -> 228 ;
229 [label="diversity <= 0.1\ngini = 0.4\nsamples = 717\nvalue = [804, 366]\nclass = Fake", fillcolor="#e581398b"] ;
228 -> 229 ;
230 [label="diversity <= 0.1\ngini = 0.4\nsamples = 662\nvalue = [774, 305]\nclass = Fake", fillcolor="#e581399b"] ;
229 -> 230 ;
231 [label="diversity <= 0.1\ngini = 0.5\nsamples = 213\nvalue = [213, 137]\nclass = Fake", fillcolor="#e581395b"] ;
230 -> 231 ;
232 [label="diversity <= 0.1\ngini = 0.4\nsamples = 180\nvalue = [205, 83]\nclass = Fake", fillcolor="#e5813998"] ;
231 -> 232 ;
233 [label="diversity <= 0.1\ngini = 0.2\nsamples = 36\nvalue = [53, 5]\nclass = Fake", fillcolor="#e58139e7"] ;
232 -> 233 ;
234 [label="diversity <= 0.1\ngini = 0.4\nsamples = 13\nvalue = [13, 5]\nclass = Fake", fillcolor="#e581399d"] ;
233 -> 234 ;
235 [label="diversity <= 0.1\ngini = 0.2\nsamples = 10\nvalue = [12, 2]\nclass = Fake", fillcolor="#e58139d4"] ;
234 -> 235 ;
236 [label="gini = 0.0\nsamples = 5\nvalue = [8, 0]\nclass = Fake", fillcolor="#e58139ff"] ;
235 -> 236 ;
237 [label="gini = 0.4\nsamples = 5\nvalue = [4, 2]\nclass = Fake", fillcolor="#e581397f"] ;
235 -> 237 ;
238 [label="diversity <= 0.1\ngini = 0.4\nsamples = 3\nvalue = [1, 3]\nclass = Real", fillcolor="#399de5aa"] ;
234 -> 238 ;
239 [label="gini = 0.4\nsamples = 2\nvalue = [1, 2]\nclass = Real", fillcolor="#399de57f"] ;
238 -> 239 ;
240 [label="gini = 0.0\nsamples = 1\nvalue = [0, 1]\nclass = Real", fillcolor="#399de5ff"] ;
238 -> 240 ;
241 [label="gini = 0.0\nsamples = 23\nvalue = [40, 0]\nclass = Fake", fillcolor="#e58139ff"] ;
233 -> 241 ;
242 [label="diversity <= 0.1\ngini = 0.4\nsamples = 144\nvalue = [152, 78]\nclass = Fake", fillcolor="#e581397c"] ;
232 -> 242 ;
243 [label="diversity <= 0.1\ngini = 0.5\nsamples = 38\nvalue = [24, 39]\nclass = Real", fillcolor="#399de562"] ;
242 -> 243 ;
244 [label="diversity <= 0.1\ngini = 0.5\nsamples = 36\nvalue = [24, 33]\nclass = Real", fillcolor="#399de546"] ;
243 -> 244 ;
245 [label="gini = 0.4\nsamples = 13\nvalue = [5, 13]\nclass = Real", fillcolor="#399de59d"] ;
244 -> 245 ;
246 [label="diversity <= 0.1\ngini = 0.5\nsamples = 23\nvalue = [19, 20]\nclass = Real", fillcolor="#399de50d"] ;
244 -> 246 ;
247 [label="gini = 0.0\nsamples = 1\nvalue = [3, 0]\nclass = Fake", fillcolor="#e58139ff"] ;
246 -> 247 ;
248 [label="gini = 0.5\nsamples = 22\nvalue = [16, 20]\nclass = Real", fillcolor="#399de533"] ;
246 -> 248 ;
249 [label="gini = 0.0\nsamples = 2\nvalue = [0, 6]\nclass = Real", fillcolor="#399de5ff"] ;
243 -> 249 ;
250 [label="diversity <= 0.1\ngini = 0.4\nsamples = 106\nvalue = [128, 39]\nclass = Fake", fillcolor="#e58139b1"] ;
242 -> 250 ;
251 [label="diversity <= 0.1\ngini = 0.1\nsamples = 17\nvalue = [24, 1]\nclass = Fake", fillcolor="#e58139f4"] ;
250 -> 251 ;
252 [label="diversity <= 0.1\ngini = 0.3\nsamples = 4\nvalue = [5, 1]\nclass = Fake", fillcolor="#e58139cc"] ;
251 -> 252 ;
253 [label="gini = 0.0\nsamples = 2\nvalue = [3, 0]\nclass = Fake", fillcolor="#e58139ff"] ;
252 -> 253 ;
254 [label="gini = 0.4\nsamples = 2\nvalue = [2, 1]\nclass = Fake", fillcolor="#e581397f"] ;
252 -> 254 ;
255 [label="gini = 0.0\nsamples = 13\nvalue = [19, 0]\nclass = Fake", fillcolor="#e58139ff"] ;
251 -> 255 ;
256 [label="diversity <= 0.1\ngini = 0.4\nsamples = 89\nvalue = [104, 38]\nclass = Fake", fillcolor="#e58139a2"] ;
250 -> 256 ;
257 [label="diversity <= 0.1\ngini = 0.2\nsamples = 4\nvalue = [1, 6]\nclass = Real", fillcolor="#399de5d4"] ;
256 -> 257 ;
258 [label="diversity <= 0.1\ngini = 0.5\nsamples = 2\nvalue = [1, 1]\nclass = Fake", fillcolor="#e5813900"] ;
257 -> 258 ;
259 [label="gini = 0.0\nsamples = 1\nvalue = [0, 1]\nclass = Real", fillcolor="#399de5ff"] ;
258 -> 259 ;
260 [label="gini = 0.0\nsamples = 1\nvalue = [1, 0]\nclass = Fake", fillcolor="#e58139ff"] ;
258 -> 260 ;
261 [label="gini = 0.0\nsamples = 2\nvalue = [0, 5]\nclass = Real", fillcolor="#399de5ff"] ;
257 -> 261 ;
262 [label="diversity <= 0.1\ngini = 0.4\nsamples = 85\nvalue = [103, 32]\nclass = Fake", fillcolor="#e58139b0"] ;
256 -> 262 ;
263 [label="diversity <= 0.1\ngini = 0.4\nsamples = 74\nvalue = [83, 31]\nclass = Fake", fillcolor="#e58139a0"] ;
262 -> 263 ;
264 [label="diversity <= 0.1\ngini = 0.4\nsamples = 70\nvalue = [81, 27]\nclass = Fake", fillcolor="#e58139aa"] ;
263 -> 264 ;
265 [label="diversity <= 0.1\ngini = 0.4\nsamples = 41\nvalue = [43, 19]\nclass = Fake", fillcolor="#e581398e"] ;
264 -> 265 ;
266 [label="diversity <= 0.1\ngini = 0.3\nsamples = 33\nvalue = [40, 10]\nclass = Fake", fillcolor="#e58139bf"] ;
265 -> 266 ;
267 [label="diversity <= 0.1\ngini = 0.2\nsamples = 13\nvalue = [16, 2]\nclass = Fake", fillcolor="#e58139df"] ;
266 -> 267 ;
268 [label="gini = 0.5\nsamples = 2\nvalue = [1, 1]\nclass = Fake", fillcolor="#e5813900"] ;
267 -> 268 ;
269 [label="diversity <= 0.1\ngini = 0.1\nsamples = 11\nvalue = [15, 1]\nclass = Fake", fillcolor="#e58139ee"] ;
267 -> 269 ;
270 [label="diversity <= 0.1\ngini = 0.2\nsamples = 8\nvalue = [10, 1]\nclass = Fake", fillcolor="#e58139e6"] ;
269 -> 270 ;
271 [label="gini = 0.0\nsamples = 1\nvalue = [1, 0]\nclass = Fake", fillcolor="#e58139ff"] ;
270 -> 271 ;
272 [label="gini = 0.2\nsamples = 7\nvalue = [9, 1]\nclass = Fake", fillcolor="#e58139e3"] ;
270 -> 272 ;
273 [label="gini = 0.0\nsamples = 3\nvalue = [5, 0]\nclass = Fake", fillcolor="#e58139ff"] ;
269 -> 273 ;
274 [label="diversity <= 0.1\ngini = 0.4\nsamples = 20\nvalue = [24, 8]\nclass = Fake", fillcolor="#e58139aa"] ;
266 -> 274 ;
275 [label="gini = 0.0\nsamples = 2\nvalue = [0, 2]\nclass = Real", fillcolor="#399de5ff"] ;
274 -> 275 ;
276 [label="diversity <= 0.1\ngini = 0.3\nsamples = 18\nvalue = [24, 6]\nclass = Fake", fillcolor="#e58139bf"] ;
274 -> 276 ;
277 [label="diversity <= 0.1\ngini = 0.4\nsamples = 9\nvalue = [8, 4]\nclass = Fake", fillcolor="#e581397f"] ;
276 -> 277 ;
278 [label="diversity <= 0.1\ngini = 0.3\nsamples = 7\nvalue = [8, 2]\nclass = Fake", fillcolor="#e58139bf"] ;
277 -> 278 ;
279 [label="gini = 0.0\nsamples = 4\nvalue = [5, 0]\nclass = Fake", fillcolor="#e58139ff"] ;
278 -> 279 ;
280 [label="diversity <= 0.1\ngini = 0.5\nsamples = 3\nvalue = [3, 2]\nclass = Fake", fillcolor="#e5813955"] ;
278 -> 280 ;
281 [label="gini = 0.0\nsamples = 1\nvalue = [0, 1]\nclass = Real", fillcolor="#399de5ff"] ;
280 -> 281 ;
282 [label="gini = 0.4\nsamples = 2\nvalue = [3, 1]\nclass = Fake", fillcolor="#e58139aa"] ;
280 -> 282 ;
283 [label="gini = 0.0\nsamples = 2\nvalue = [0, 2]\nclass = Real", fillcolor="#399de5ff"] ;
277 -> 283 ;
284 [label="diversity <= 0.1\ngini = 0.2\nsamples = 9\nvalue = [16, 2]\nclass = Fake", fillcolor="#e58139df"] ;
276 -> 284 ;
285 [label="gini = 0.0\nsamples = 6\nvalue = [12, 0]\nclass = Fake", fillcolor="#e58139ff"] ;
284 -> 285 ;
286 [label="diversity <= 0.1\ngini = 0.4\nsamples = 3\nvalue = [4, 2]\nclass = Fake", fillcolor="#e581397f"] ;
284 -> 286 ;
287 [label="gini = 0.0\nsamples = 1\nvalue = [0, 2]\nclass = Real", fillcolor="#399de5ff"] ;
286 -> 287 ;
288 [label="gini = 0.0\nsamples = 2\nvalue = [4, 0]\nclass = Fake", fillcolor="#e58139ff"] ;
286 -> 288 ;
289 [label="diversity <= 0.1\ngini = 0.4\nsamples = 8\nvalue = [3, 9]\nclass = Real", fillcolor="#399de5aa"] ;
265 -> 289 ;
290 [label="gini = 0.0\nsamples = 2\nvalue = [0, 2]\nclass = Real", fillcolor="#399de5ff"] ;
289 -> 290 ;
291 [label="diversity <= 0.1\ngini = 0.4\nsamples = 6\nvalue = [3, 7]\nclass = Real", fillcolor="#399de592"] ;
289 -> 291 ;
292 [label="gini = 0.0\nsamples = 1\nvalue = [1, 0]\nclass = Fake", fillcolor="#e58139ff"] ;
291 -> 292 ;
293 [label="gini = 0.3\nsamples = 5\nvalue = [2, 7]\nclass = Real", fillcolor="#399de5b6"] ;
291 -> 293 ;
294 [label="diversity <= 0.1\ngini = 0.3\nsamples = 29\nvalue = [38, 8]\nclass = Fake", fillcolor="#e58139c9"] ;
264 -> 294 ;
295 [label="gini = 0.0\nsamples = 9\nvalue = [16, 0]\nclass = Fake", fillcolor="#e58139ff"] ;
294 -> 295 ;
296 [label="diversity <= 0.1\ngini = 0.4\nsamples = 20\nvalue = [22, 8]\nclass = Fake", fillcolor="#e58139a2"] ;
294 -> 296 ;
297 [label="gini = 0.0\nsamples = 1\nvalue = [0, 2]\nclass = Real", fillcolor="#399de5ff"] ;
296 -> 297 ;
298 [label="diversity <= 0.1\ngini = 0.3\nsamples = 19\nvalue = [22, 6]\nclass = Fake", fillcolor="#e58139b9"] ;
296 -> 298 ;
299 [label="diversity <= 0.1\ngini = 0.4\nsamples = 15\nvalue = [18, 6]\nclass = Fake", fillcolor="#e58139aa"] ;
298 -> 299 ;
300 [label="diversity <= 0.1\ngini = 0.3\nsamples = 14\nvalue = [18, 4]\nclass = Fake", fillcolor="#e58139c6"] ;
299 -> 300 ;
301 [label="gini = 0.0\nsamples = 1\nvalue = [1, 0]\nclass = Fake", fillcolor="#e58139ff"] ;
300 -> 301 ;
302 [label="gini = 0.3\nsamples = 13\nvalue = [17, 4]\nclass = Fake", fillcolor="#e58139c3"] ;
300 -> 302 ;
303 [label="gini = 0.0\nsamples = 1\nvalue = [0, 2]\nclass = Real", fillcolor="#399de5ff"] ;
299 -> 303 ;
304 [label="gini = 0.0\nsamples = 4\nvalue = [4, 0]\nclass = Fake", fillcolor="#e58139ff"] ;
298 -> 304 ;
305 [label="diversity <= 0.1\ngini = 0.4\nsamples = 4\nvalue = [2, 4]\nclass = Real", fillcolor="#399de57f"] ;
263 -> 305 ;
306 [label="gini = 0.0\nsamples = 1\nvalue = [0, 3]\nclass = Real", fillcolor="#399de5ff"] ;
305 -> 306 ;
307 [label="gini = 0.4\nsamples = 3\nvalue = [2, 1]\nclass = Fake", fillcolor="#e581397f"] ;
305 -> 307 ;
308 [label="diversity <= 0.1\ngini = 0.1\nsamples = 11\nvalue = [20, 1]\nclass = Fake", fillcolor="#e58139f2"] ;
262 -> 308 ;
309 [label="gini = 0.0\nsamples = 6\nvalue = [13, 0]\nclass = Fake", fillcolor="#e58139ff"] ;
308 -> 309 ;
310 [label="diversity <= 0.1\ngini = 0.2\nsamples = 5\nvalue = [7, 1]\nclass = Fake", fillcolor="#e58139db"] ;
308 -> 310 ;
311 [label="gini = 0.4\nsamples = 3\nvalue = [3, 1]\nclass = Fake", fillcolor="#e58139aa"] ;
310 -> 311 ;
312 [label="gini = 0.0\nsamples = 2\nvalue = [4, 0]\nclass = Fake", fillcolor="#e58139ff"] ;
310 -> 312 ;
313 [label="diversity <= 0.1\ngini = 0.2\nsamples = 33\nvalue = [8, 54]\nclass = Real", fillcolor="#399de5d9"] ;
231 -> 313 ;
314 [label="gini = 0.4\nsamples = 2\nvalue = [1, 2]\nclass = Real", fillcolor="#399de57f"] ;
313 -> 314 ;
315 [label="diversity <= 0.1\ngini = 0.2\nsamples = 31\nvalue = [7, 52]\nclass = Real", fillcolor="#399de5dd"] ;
313 -> 315 ;
316 [label="gini = 0.0\nsamples = 1\nvalue = [0, 3]\nclass = Real", fillcolor="#399de5ff"] ;
315 -> 316 ;
317 [label="gini = 0.2\nsamples = 30\nvalue = [7, 49]\nclass = Real", fillcolor="#399de5db"] ;
315 -> 317 ;
318 [label="diversity <= 0.1\ngini = 0.4\nsamples = 449\nvalue = [561, 168]\nclass = Fake", fillcolor="#e58139b3"] ;
230 -> 318 ;
319 [label="diversity <= 0.1\ngini = 0.1\nsamples = 123\nvalue = [190, 7]\nclass = Fake", fillcolor="#e58139f6"] ;
318 -> 319 ;
320 [label="gini = 0.0\nsamples = 87\nvalue = [134, 0]\nclass = Fake", fillcolor="#e58139ff"] ;
319 -> 320 ;
321 [label="diversity <= 0.1\ngini = 0.2\nsamples = 36\nvalue = [56, 7]\nclass = Fake", fillcolor="#e58139df"] ;
319 -> 321 ;
322 [label="gini = 0.0\nsamples = 4\nvalue = [0, 6]\nclass = Real", fillcolor="#399de5ff"] ;
321 -> 322 ;
323 [label="diversity <= 0.1\ngini = 0.0\nsamples = 32\nvalue = [56, 1]\nclass = Fake", fillcolor="#e58139fa"] ;
321 -> 323 ;
324 [label="diversity <= 0.1\ngini = 0.2\nsamples = 5\nvalue = [8, 1]\nclass = Fake", fillcolor="#e58139df"] ;
323 -> 324 ;
325 [label="gini = 0.0\nsamples = 2\nvalue = [3, 0]\nclass = Fake", fillcolor="#e58139ff"] ;
324 -> 325 ;
326 [label="gini = 0.3\nsamples = 3\nvalue = [5, 1]\nclass = Fake", fillcolor="#e58139cc"] ;
324 -> 326 ;
327 [label="gini = 0.0\nsamples = 27\nvalue = [48, 0]\nclass = Fake", fillcolor="#e58139ff"] ;
323 -> 327 ;
328 [label="diversity <= 0.1\ngini = 0.4\nsamples = 326\nvalue = [371, 161]\nclass = Fake", fillcolor="#e5813990"] ;
318 -> 328 ;
329 [label="diversity <= 0.1\ngini = 0.2\nsamples = 15\nvalue = [3, 22]\nclass = Real", fillcolor="#399de5dc"] ;
328 -> 329 ;
330 [label="gini = 0.5\nsamples = 5\nvalue = [3, 4]\nclass = Real", fillcolor="#399de540"] ;
329 -> 330 ;
331 [label="gini = 0.0\nsamples = 10\nvalue = [0, 18]\nclass = Real", fillcolor="#399de5ff"] ;
329 -> 331 ;
332 [label="diversity <= 0.1\ngini = 0.4\nsamples = 311\nvalue = [368, 139]\nclass = Fake", fillcolor="#e581399f"] ;
328 -> 332 ;
333 [label="diversity <= 0.1\ngini = 0.0\nsamples = 54\nvalue = [86, 2]\nclass = Fake", fillcolor="#e58139f9"] ;
332 -> 333 ;
334 [label="gini = 0.0\nsamples = 15\nvalue = [29, 0]\nclass = Fake", fillcolor="#e58139ff"] ;
333 -> 334 ;
335 [label="gini = 0.1\nsamples = 39\nvalue = [57, 2]\nclass = Fake", fillcolor="#e58139f6"] ;
333 -> 335 ;
336 [label="diversity <= 0.1\ngini = 0.4\nsamples = 257\nvalue = [282, 137]\nclass = Fake", fillcolor="#e5813983"] ;
332 -> 336 ;
337 [label="diversity <= 0.1\ngini = 0.5\nsamples = 125\nvalue = [121, 82]\nclass = Fake", fillcolor="#e5813952"] ;
336 -> 337 ;
338 [label="diversity <= 0.1\ngini = 0.4\nsamples = 81\nvalue = [89, 44]\nclass = Fake", fillcolor="#e5813981"] ;
337 -> 338 ;
339 [label="diversity <= 0.1\ngini = 0.5\nsamples = 64\nvalue = [64, 44]\nclass = Fake", fillcolor="#e5813950"] ;
338 -> 339 ;
340 [label="diversity <= 0.1\ngini = 0.4\nsamples = 40\nvalue = [45, 20]\nclass = Fake", fillcolor="#e581398e"] ;
339 -> 340 ;
341 [label="diversity <= 0.1\ngini = 0.5\nsamples = 33\nvalue = [35, 19]\nclass = Fake", fillcolor="#e5813975"] ;
340 -> 341 ;
342 [label="diversity <= 0.1\ngini = 0.4\nsamples = 31\nvalue = [35, 15]\nclass = Fake", fillcolor="#e5813992"] ;
341 -> 342 ;
343 [label="diversity <= 0.1\ngini = 0.5\nsamples = 24\nvalue = [22, 14]\nclass = Fake", fillcolor="#e581395d"] ;
342 -> 343 ;
344 [label="diversity <= 0.1\ngini = 0.4\nsamples = 13\nvalue = [14, 5]\nclass = Fake", fillcolor="#e58139a4"] ;
343 -> 344 ;
345 [label="diversity <= 0.1\ngini = 0.5\nsamples = 4\nvalue = [2, 2]\nclass = Fake", fillcolor="#e5813900"] ;
344 -> 345 ;
346 [label="diversity <= 0.1\ngini = 0.4\nsamples = 3\nvalue = [2, 1]\nclass = Fake", fillcolor="#e581397f"] ;
345 -> 346 ;
347 [label="gini = 0.5\nsamples = 2\nvalue = [1, 1]\nclass = Fake", fillcolor="#e5813900"] ;
346 -> 347 ;
348 [label="gini = 0.0\nsamples = 1\nvalue = [1, 0]\nclass = Fake", fillcolor="#e58139ff"] ;
346 -> 348 ;
349 [label="gini = 0.0\nsamples = 1\nvalue = [0, 1]\nclass = Real", fillcolor="#399de5ff"] ;
345 -> 349 ;
350 [label="gini = 0.3\nsamples = 9\nvalue = [12, 3]\nclass = Fake", fillcolor="#e58139bf"] ;
344 -> 350 ;
351 [label="gini = 0.5\nsamples = 11\nvalue = [8, 9]\nclass = Real", fillcolor="#399de51c"] ;
343 -> 351 ;
352 [label="diversity <= 0.1\ngini = 0.1\nsamples = 7\nvalue = [13, 1]\nclass = Fake", fillcolor="#e58139eb"] ;
342 -> 352 ;
353 [label="gini = 0.3\nsamples = 3\nvalue = [5, 1]\nclass = Fake", fillcolor="#e58139cc"] ;
352 -> 353 ;
354 [label="gini = 0.0\nsamples = 4\nvalue = [8, 0]\nclass = Fake", fillcolor="#e58139ff"] ;
352 -> 354 ;
355 [label="gini = 0.0\nsamples = 2\nvalue = [0, 4]\nclass = Real", fillcolor="#399de5ff"] ;
341 -> 355 ;
356 [label="gini = 0.2\nsamples = 7\nvalue = [10, 1]\nclass = Fake", fillcolor="#e58139e6"] ;
340 -> 356 ;
357 [label="diversity <= 0.1\ngini = 0.5\nsamples = 24\nvalue = [19, 24]\nclass = Real", fillcolor="#399de535"] ;
339 -> 357 ;
358 [label="gini = 0.3\nsamples = 3\nvalue = [1, 5]\nclass = Real", fillcolor="#399de5cc"] ;
357 -> 358 ;
359 [label="diversity <= 0.1\ngini = 0.5\nsamples = 21\nvalue = [18, 19]\nclass = Real", fillcolor="#399de50d"] ;
357 -> 359 ;
360 [label="gini = 0.0\nsamples = 3\nvalue = [5, 0]\nclass = Fake", fillcolor="#e58139ff"] ;
359 -> 360 ;
361 [label="gini = 0.5\nsamples = 18\nvalue = [13, 19]\nclass = Real", fillcolor="#399de551"] ;
359 -> 361 ;
362 [label="gini = 0.0\nsamples = 17\nvalue = [25, 0]\nclass = Fake", fillcolor="#e58139ff"] ;
338 -> 362 ;
363 [label="diversity <= 0.1\ngini = 0.5\nsamples = 44\nvalue = [32, 38]\nclass = Real", fillcolor="#399de528"] ;
337 -> 363 ;
364 [label="diversity <= 0.1\ngini = 0.2\nsamples = 10\nvalue = [2, 16]\nclass = Real", fillcolor="#399de5df"] ;
363 -> 364 ;
365 [label="gini = 0.3\nsamples = 2\nvalue = [1, 5]\nclass = Real", fillcolor="#399de5cc"] ;
364 -> 365 ;
366 [label="gini = 0.2\nsamples = 8\nvalue = [1, 11]\nclass = Real", fillcolor="#399de5e8"] ;
364 -> 366 ;
367 [label="diversity <= 0.1\ngini = 0.5\nsamples = 34\nvalue = [30, 22]\nclass = Fake", fillcolor="#e5813944"] ;
363 -> 367 ;
368 [label="diversity <= 0.1\ngini = 0.1\nsamples = 9\nvalue = [12, 1]\nclass = Fake", fillcolor="#e58139ea"] ;
367 -> 368 ;
369 [label="gini = 0.0\nsamples = 5\nvalue = [7, 0]\nclass = Fake", fillcolor="#e58139ff"] ;
368 -> 369 ;
370 [label="gini = 0.3\nsamples = 4\nvalue = [5, 1]\nclass = Fake", fillcolor="#e58139cc"] ;
368 -> 370 ;
371 [label="diversity <= 0.1\ngini = 0.5\nsamples = 25\nvalue = [18, 21]\nclass = Real", fillcolor="#399de524"] ;
367 -> 371 ;
372 [label="diversity <= 0.1\ngini = 0.2\nsamples = 8\nvalue = [1, 11]\nclass = Real", fillcolor="#399de5e8"] ;
371 -> 372 ;
373 [label="gini = 0.4\nsamples = 3\nvalue = [1, 2]\nclass = Real", fillcolor="#399de57f"] ;
372 -> 373 ;
374 [label="gini = 0.0\nsamples = 5\nvalue = [0, 9]\nclass = Real", fillcolor="#399de5ff"] ;
372 -> 374 ;
375 [label="diversity <= 0.1\ngini = 0.5\nsamples = 17\nvalue = [17, 10]\nclass = Fake", fillcolor="#e5813969"] ;
371 -> 375 ;
376 [label="gini = 0.2\nsamples = 6\nvalue = [8, 1]\nclass = Fake", fillcolor="#e58139df"] ;
375 -> 376 ;
377 [label="diversity <= 0.1\ngini = 0.5\nsamples = 11\nvalue = [9, 9]\nclass = Fake", fillcolor="#e5813900"] ;
375 -> 377 ;
378 [label="gini = 0.0\nsamples = 2\nvalue = [0, 4]\nclass = Real", fillcolor="#399de5ff"] ;
377 -> 378 ;
379 [label="diversity <= 0.1\ngini = 0.5\nsamples = 9\nvalue = [9, 5]\nclass = Fake", fillcolor="#e5813971"] ;
377 -> 379 ;
380 [label="gini = 0.0\nsamples = 1\nvalue = [1, 0]\nclass = Fake", fillcolor="#e58139ff"] ;
379 -> 380 ;
381 [label="gini = 0.5\nsamples = 8\nvalue = [8, 5]\nclass = Fake", fillcolor="#e5813960"] ;
379 -> 381 ;
382 [label="diversity <= 0.1\ngini = 0.4\nsamples = 132\nvalue = [161, 55]\nclass = Fake", fillcolor="#e58139a8"] ;
336 -> 382 ;
383 [label="diversity <= 0.1\ngini = 0.2\nsamples = 67\nvalue = [95, 12]\nclass = Fake", fillcolor="#e58139df"] ;
382 -> 383 ;
384 [label="diversity <= 0.1\ngini = 0.4\nsamples = 10\nvalue = [11, 5]\nclass = Fake", fillcolor="#e581398b"] ;
383 -> 384 ;
385 [label="gini = 0.0\nsamples = 7\nvalue = [11, 0]\nclass = Fake", fillcolor="#e58139ff"] ;
384 -> 385 ;
386 [label="gini = 0.0\nsamples = 3\nvalue = [0, 5]\nclass = Real", fillcolor="#399de5ff"] ;
384 -> 386 ;
387 [label="diversity <= 0.1\ngini = 0.1\nsamples = 57\nvalue = [84, 7]\nclass = Fake", fillcolor="#e58139ea"] ;
383 -> 387 ;
388 [label="gini = 0.0\nsamples = 36\nvalue = [58, 0]\nclass = Fake", fillcolor="#e58139ff"] ;
387 -> 388 ;
389 [label="diversity <= 0.1\ngini = 0.3\nsamples = 21\nvalue = [26, 7]\nclass = Fake", fillcolor="#e58139ba"] ;
387 -> 389 ;
390 [label="gini = 0.5\nsamples = 8\nvalue = [7, 7]\nclass = Fake", fillcolor="#e5813900"] ;
389 -> 390 ;
391 [label="gini = 0.0\nsamples = 13\nvalue = [19, 0]\nclass = Fake", fillcolor="#e58139ff"] ;
389 -> 391 ;
392 [label="diversity <= 0.1\ngini = 0.5\nsamples = 65\nvalue = [66, 43]\nclass = Fake", fillcolor="#e5813959"] ;
382 -> 392 ;
393 [label="diversity <= 0.1\ngini = 0.5\nsamples = 32\nvalue = [23, 29]\nclass = Real", fillcolor="#399de535"] ;
392 -> 393 ;
394 [label="diversity <= 0.1\ngini = 0.5\nsamples = 31\nvalue = [23, 26]\nclass = Real", fillcolor="#399de51d"] ;
393 -> 394 ;
395 [label="gini = 0.5\nsamples = 30\nvalue = [20, 26]\nclass = Real", fillcolor="#399de53b"] ;
394 -> 395 ;
396 [label="gini = 0.0\nsamples = 1\nvalue = [3, 0]\nclass = Fake", fillcolor="#e58139ff"] ;
394 -> 396 ;
397 [label="gini = 0.0\nsamples = 1\nvalue = [0, 3]\nclass = Real", fillcolor="#399de5ff"] ;
393 -> 397 ;
398 [label="diversity <= 0.1\ngini = 0.4\nsamples = 33\nvalue = [43, 14]\nclass = Fake", fillcolor="#e58139ac"] ;
392 -> 398 ;
399 [label="gini = 0.0\nsamples = 4\nvalue = [6, 0]\nclass = Fake", fillcolor="#e58139ff"] ;
398 -> 399 ;
400 [label="diversity <= 0.1\ngini = 0.4\nsamples = 29\nvalue = [37, 14]\nclass = Fake", fillcolor="#e581399f"] ;
398 -> 400 ;
401 [label="gini = 0.4\nsamples = 3\nvalue = [1, 2]\nclass = Real", fillcolor="#399de57f"] ;
400 -> 401 ;
402 [label="diversity <= 0.1\ngini = 0.4\nsamples = 26\nvalue = [36, 12]\nclass = Fake", fillcolor="#e58139aa"] ;
400 -> 402 ;
403 [label="diversity <= 0.1\ngini = 0.4\nsamples = 16\nvalue = [21, 9]\nclass = Fake", fillcolor="#e5813992"] ;
402 -> 403 ;
404 [label="diversity <= 0.1\ngini = 0.3\nsamples = 9\nvalue = [14, 3]\nclass = Fake", fillcolor="#e58139c8"] ;
403 -> 404 ;
405 [label="gini = 0.3\nsamples = 8\nvalue = [12, 3]\nclass = Fake", fillcolor="#e58139bf"] ;
404 -> 405 ;
406 [label="gini = 0.0\nsamples = 1\nvalue = [2, 0]\nclass = Fake", fillcolor="#e58139ff"] ;
404 -> 406 ;
407 [label="gini = 0.5\nsamples = 7\nvalue = [7, 6]\nclass = Fake", fillcolor="#e5813924"] ;
403 -> 407 ;
408 [label="gini = 0.3\nsamples = 10\nvalue = [15, 3]\nclass = Fake", fillcolor="#e58139cc"] ;
402 -> 408 ;
409 [label="diversity <= 0.1\ngini = 0.4\nsamples = 55\nvalue = [30, 61]\nclass = Real", fillcolor="#399de582"] ;
229 -> 409 ;
410 [label="gini = 0.0\nsamples = 1\nvalue = [0, 1]\nclass = Real", fillcolor="#399de5ff"] ;
409 -> 410 ;
411 [label="diversity <= 0.1\ngini = 0.4\nsamples = 54\nvalue = [30, 60]\nclass = Real", fillcolor="#399de57f"] ;
409 -> 411 ;
412 [label="gini = 0.0\nsamples = 1\nvalue = [1, 0]\nclass = Fake", fillcolor="#e58139ff"] ;
411 -> 412 ;
413 [label="gini = 0.4\nsamples = 53\nvalue = [29, 60]\nclass = Real", fillcolor="#399de584"] ;
411 -> 413 ;
414 [label="diversity <= 0.1\ngini = 0.3\nsamples = 402\nvalue = [529, 94]\nclass = Fake", fillcolor="#e58139d2"] ;
228 -> 414 ;
415 [label="diversity <= 0.1\ngini = 0.1\nsamples = 190\nvalue = [286, 8]\nclass = Fake", fillcolor="#e58139f8"] ;
414 -> 415 ;
416 [label="diversity <= 0.1\ngini = 0.1\nsamples = 121\nvalue = [176, 8]\nclass = Fake", fillcolor="#e58139f3"] ;
415 -> 416 ;
417 [label="diversity <= 0.1\ngini = 0.1\nsamples = 120\nvalue = [176, 7]\nclass = Fake", fillcolor="#e58139f5"] ;
416 -> 417 ;
418 [label="diversity <= 0.1\ngini = 0.0\nsamples = 103\nvalue = [154, 3]\nclass = Fake", fillcolor="#e58139fa"] ;
417 -> 418 ;
419 [label="gini = 0.1\nsamples = 22\nvalue = [31, 2]\nclass = Fake", fillcolor="#e58139ef"] ;
418 -> 419 ;
420 [label="diversity <= 0.1\ngini = 0.0\nsamples = 81\nvalue = [123, 1]\nclass = Fake", fillcolor="#e58139fd"] ;
418 -> 420 ;
421 [label="gini = 0.0\nsamples = 80\nvalue = [122, 1]\nclass = Fake", fillcolor="#e58139fd"] ;
420 -> 421 ;
422 [label="gini = 0.0\nsamples = 1\nvalue = [1, 0]\nclass = Fake", fillcolor="#e58139ff"] ;
420 -> 422 ;
423 [label="diversity <= 0.1\ngini = 0.3\nsamples = 17\nvalue = [22, 4]\nclass = Fake", fillcolor="#e58139d1"] ;
417 -> 423 ;
424 [label="diversity <= 0.1\ngini = 0.3\nsamples = 9\nvalue = [12, 3]\nclass = Fake", fillcolor="#e58139bf"] ;
423 -> 424 ;
425 [label="gini = 0.3\nsamples = 4\nvalue = [5, 1]\nclass = Fake", fillcolor="#e58139cc"] ;
424 -> 425 ;
426 [label="gini = 0.3\nsamples = 5\nvalue = [7, 2]\nclass = Fake", fillcolor="#e58139b6"] ;
424 -> 426 ;
427 [label="gini = 0.2\nsamples = 8\nvalue = [10, 1]\nclass = Fake", fillcolor="#e58139e6"] ;
423 -> 427 ;
428 [label="gini = 0.0\nsamples = 1\nvalue = [0, 1]\nclass = Real", fillcolor="#399de5ff"] ;
416 -> 428 ;
429 [label="gini = 0.0\nsamples = 69\nvalue = [110, 0]\nclass = Fake", fillcolor="#e58139ff"] ;
415 -> 429 ;
430 [label="diversity <= 0.1\ngini = 0.4\nsamples = 212\nvalue = [243, 86]\nclass = Fake", fillcolor="#e58139a5"] ;
414 -> 430 ;
431 [label="diversity <= 0.1\ngini = 0.3\nsamples = 19\nvalue = [5, 22]\nclass = Real", fillcolor="#399de5c5"] ;
430 -> 431 ;
432 [label="gini = 0.0\nsamples = 2\nvalue = [0, 3]\nclass = Real", fillcolor="#399de5ff"] ;
431 -> 432 ;
433 [label="diversity <= 0.1\ngini = 0.3\nsamples = 17\nvalue = [5, 19]\nclass = Real", fillcolor="#399de5bc"] ;
431 -> 433 ;
434 [label="gini = 0.3\nsamples = 6\nvalue = [2, 7]\nclass = Real", fillcolor="#399de5b6"] ;
433 -> 434 ;
435 [label="gini = 0.3\nsamples = 11\nvalue = [3, 12]\nclass = Real", fillcolor="#399de5bf"] ;
433 -> 435 ;
436 [label="diversity <= 0.1\ngini = 0.3\nsamples = 193\nvalue = [238, 64]\nclass = Fake", fillcolor="#e58139ba"] ;
430 -> 436 ;
437 [label="diversity <= 0.1\ngini = 0.4\nsamples = 145\nvalue = [171, 63]\nclass = Fake", fillcolor="#e58139a1"] ;
436 -> 437 ;
438 [label="diversity <= 0.1\ngini = 0.2\nsamples = 54\nvalue = [81, 9]\nclass = Fake", fillcolor="#e58139e3"] ;
437 -> 438 ;
439 [label="diversity <= 0.1\ngini = 0.4\nsamples = 17\nvalue = [21, 9]\nclass = Fake", fillcolor="#e5813992"] ;
438 -> 439 ;
440 [label="gini = 0.4\nsamples = 14\nvalue = [20, 7]\nclass = Fake", fillcolor="#e58139a6"] ;
439 -> 440 ;
441 [label="gini = 0.4\nsamples = 3\nvalue = [1, 2]\nclass = Real", fillcolor="#399de57f"] ;
439 -> 441 ;
442 [label="gini = 0.0\nsamples = 37\nvalue = [60, 0]\nclass = Fake", fillcolor="#e58139ff"] ;
438 -> 442 ;
443 [label="diversity <= 0.1\ngini = 0.5\nsamples = 91\nvalue = [90, 54]\nclass = Fake", fillcolor="#e5813966"] ;
437 -> 443 ;
444 [label="diversity <= 0.1\ngini = 0.2\nsamples = 6\nvalue = [1, 8]\nclass = Real", fillcolor="#399de5df"] ;
443 -> 444 ;
445 [label="gini = 0.0\nsamples = 3\nvalue = [0, 5]\nclass = Real", fillcolor="#399de5ff"] ;
444 -> 445 ;
446 [label="gini = 0.4\nsamples = 3\nvalue = [1, 3]\nclass = Real", fillcolor="#399de5aa"] ;
444 -> 446 ;
447 [label="diversity <= 0.1\ngini = 0.4\nsamples = 85\nvalue = [89, 46]\nclass = Fake", fillcolor="#e581397b"] ;
443 -> 447 ;
448 [label="diversity <= 0.1\ngini = 0.4\nsamples = 36\nvalue = [41, 15]\nclass = Fake", fillcolor="#e58139a2"] ;
447 -> 448 ;
449 [label="diversity <= 0.1\ngini = 0.4\nsamples = 28\nvalue = [29, 15]\nclass = Fake", fillcolor="#e581397b"] ;
448 -> 449 ;
450 [label="gini = 0.4\nsamples = 2\nvalue = [2, 1]\nclass = Fake", fillcolor="#e581397f"] ;
449 -> 450 ;
451 [label="gini = 0.4\nsamples = 26\nvalue = [27, 14]\nclass = Fake", fillcolor="#e581397b"] ;
449 -> 451 ;
452 [label="gini = 0.0\nsamples = 8\nvalue = [12, 0]\nclass = Fake", fillcolor="#e58139ff"] ;
448 -> 452 ;
453 [label="diversity <= 0.1\ngini = 0.5\nsamples = 49\nvalue = [48, 31]\nclass = Fake", fillcolor="#e581395a"] ;
447 -> 453 ;
454 [label="gini = 0.0\nsamples = 1\nvalue = [0, 1]\nclass = Real", fillcolor="#399de5ff"] ;
453 -> 454 ;
455 [label="gini = 0.5\nsamples = 48\nvalue = [48, 30]\nclass = Fake", fillcolor="#e5813960"] ;
453 -> 455 ;
456 [label="diversity <= 0.1\ngini = 0.0\nsamples = 48\nvalue = [67, 1]\nclass = Fake", fillcolor="#e58139fb"] ;
436 -> 456 ;
457 [label="gini = 0.0\nsamples = 26\nvalue = [38, 0]\nclass = Fake", fillcolor="#e58139ff"] ;
456 -> 457 ;
458 [label="gini = 0.1\nsamples = 22\nvalue = [29, 1]\nclass = Fake", fillcolor="#e58139f6"] ;
456 -> 458 ;
459 [label="diversity <= 0.1\ngini = 0.5\nsamples = 789\nvalue = [755, 531]\nclass = Fake", fillcolor="#e581394c"] ;
227 -> 459 ;
460 [label="diversity <= 0.1\ngini = 0.5\nsamples = 684\nvalue = [591, 527]\nclass = Fake", fillcolor="#e581391c"] ;
459 -> 460 ;
461 [label="diversity <= 0.1\ngini = 0.5\nsamples = 523\nvalue = [515, 359]\nclass = Fake", fillcolor="#e581394d"] ;
460 -> 461 ;
462 [label="diversity <= 0.1\ngini = 0.5\nsamples = 140\nvalue = [85, 156]\nclass = Real", fillcolor="#399de574"] ;
461 -> 462 ;
463 [label="diversity <= 0.1\ngini = 0.5\nsamples = 91\nvalue = [68, 83]\nclass = Real", fillcolor="#399de52e"] ;
462 -> 463 ;
464 [label="diversity <= 0.1\ngini = 0.5\nsamples = 66\nvalue = [41, 77]\nclass = Real", fillcolor="#399de577"] ;
463 -> 464 ;
465 [label="diversity <= 0.1\ngini = 0.5\nsamples = 60\nvalue = [41, 67]\nclass = Real", fillcolor="#399de563"] ;
464 -> 465 ;
466 [label="gini = 0.5\nsamples = 46\nvalue = [29, 52]\nclass = Real", fillcolor="#399de571"] ;
465 -> 466 ;
467 [label="gini = 0.5\nsamples = 14\nvalue = [12, 15]\nclass = Real", fillcolor="#399de533"] ;
465 -> 467 ;
468 [label="gini = 0.0\nsamples = 6\nvalue = [0, 10]\nclass = Real", fillcolor="#399de5ff"] ;
464 -> 468 ;
469 [label="diversity <= 0.1\ngini = 0.3\nsamples = 25\nvalue = [27, 6]\nclass = Fake", fillcolor="#e58139c6"] ;
463 -> 469 ;
470 [label="diversity <= 0.1\ngini = 0.1\nsamples = 17\nvalue = [23, 2]\nclass = Fake", fillcolor="#e58139e9"] ;
469 -> 470 ;
471 [label="diversity <= 0.1\ngini = 0.1\nsamples = 13\nvalue = [20, 1]\nclass = Fake", fillcolor="#e58139f2"] ;
470 -> 471 ;
472 [label="gini = 0.1\nsamples = 8\nvalue = [12, 1]\nclass = Fake", fillcolor="#e58139ea"] ;
471 -> 472 ;
473 [label="gini = 0.0\nsamples = 5\nvalue = [8, 0]\nclass = Fake", fillcolor="#e58139ff"] ;
471 -> 473 ;
474 [label="gini = 0.4\nsamples = 4\nvalue = [3, 1]\nclass = Fake", fillcolor="#e58139aa"] ;
470 -> 474 ;
475 [label="gini = 0.5\nsamples = 8\nvalue = [4, 4]\nclass = Fake", fillcolor="#e5813900"] ;
469 -> 475 ;
476 [label="diversity <= 0.1\ngini = 0.3\nsamples = 49\nvalue = [17, 73]\nclass = Real", fillcolor="#399de5c4"] ;
462 -> 476 ;
477 [label="gini = 0.0\nsamples = 1\nvalue = [0, 3]\nclass = Real", fillcolor="#399de5ff"] ;
476 -> 477 ;
478 [label="diversity <= 0.1\ngini = 0.3\nsamples = 48\nvalue = [17, 70]\nclass = Real", fillcolor="#399de5c1"] ;
476 -> 478 ;
479 [label="gini = 0.3\nsamples = 4\nvalue = [1, 5]\nclass = Real", fillcolor="#399de5cc"] ;
478 -> 479 ;
480 [label="gini = 0.3\nsamples = 44\nvalue = [16, 65]\nclass = Real", fillcolor="#399de5c0"] ;
478 -> 480 ;
481 [label="diversity <= 0.1\ngini = 0.4\nsamples = 383\nvalue = [430, 203]\nclass = Fake", fillcolor="#e5813987"] ;
461 -> 481 ;
482 [label="diversity <= 0.1\ngini = 0.1\nsamples = 109\nvalue = [158, 9]\nclass = Fake", fillcolor="#e58139f0"] ;
481 -> 482 ;
483 [label="gini = 0.0\nsamples = 69\nvalue = [107, 0]\nclass = Fake", fillcolor="#e58139ff"] ;
482 -> 483 ;
484 [label="gini = 0.3\nsamples = 40\nvalue = [51, 9]\nclass = Fake", fillcolor="#e58139d2"] ;
482 -> 484 ;
485 [label="diversity <= 0.1\ngini = 0.5\nsamples = 274\nvalue = [272, 194]\nclass = Fake", fillcolor="#e5813949"] ;
481 -> 485 ;
486 [label="diversity <= 0.1\ngini = 0.5\nsamples = 184\nvalue = [134, 173]\nclass = Real", fillcolor="#399de539"] ;
485 -> 486 ;
487 [label="diversity <= 0.1\ngini = 0.5\nsamples = 105\nvalue = [109, 74]\nclass = Fake", fillcolor="#e5813952"] ;
486 -> 487 ;
488 [label="diversity <= 0.1\ngini = 0.2\nsamples = 20\nvalue = [5, 30]\nclass = Real", fillcolor="#399de5d4"] ;
487 -> 488 ;
489 [label="gini = 0.5\nsamples = 3\nvalue = [3, 3]\nclass = Fake", fillcolor="#e5813900"] ;
488 -> 489 ;
490 [label="diversity <= 0.1\ngini = 0.1\nsamples = 17\nvalue = [2, 27]\nclass = Real", fillcolor="#399de5ec"] ;
488 -> 490 ;
491 [label="gini = 0.2\nsamples = 10\nvalue = [2, 15]\nclass = Real", fillcolor="#399de5dd"] ;
490 -> 491 ;
492 [label="gini = 0.0\nsamples = 7\nvalue = [0, 12]\nclass = Real", fillcolor="#399de5ff"] ;
490 -> 492 ;
493 [label="diversity <= 0.1\ngini = 0.4\nsamples = 85\nvalue = [104, 44]\nclass = Fake", fillcolor="#e5813993"] ;
487 -> 493 ;
494 [label="diversity <= 0.1\ngini = 0.5\nsamples = 67\nvalue = [71, 44]\nclass = Fake", fillcolor="#e5813961"] ;
493 -> 494 ;
495 [label="diversity <= 0.1\ngini = 0.2\nsamples = 35\nvalue = [52, 8]\nclass = Fake", fillcolor="#e58139d8"] ;
494 -> 495 ;
496 [label="diversity <= 0.1\ngini = 0.5\nsamples = 4\nvalue = [5, 4]\nclass = Fake", fillcolor="#e5813933"] ;
495 -> 496 ;
497 [label="gini = 0.4\nsamples = 3\nvalue = [5, 2]\nclass = Fake", fillcolor="#e5813999"] ;
496 -> 497 ;
498 [label="gini = 0.0\nsamples = 1\nvalue = [0, 2]\nclass = Real", fillcolor="#399de5ff"] ;
496 -> 498 ;
499 [label="diversity <= 0.1\ngini = 0.1\nsamples = 31\nvalue = [47, 4]\nclass = Fake", fillcolor="#e58139e9"] ;
495 -> 499 ;
500 [label="gini = 0.0\nsamples = 25\nvalue = [40, 1]\nclass = Fake", fillcolor="#e58139f9"] ;
499 -> 500 ;
501 [label="gini = 0.4\nsamples = 6\nvalue = [7, 3]\nclass = Fake", fillcolor="#e5813992"] ;
499 -> 501 ;
502 [label="diversity <= 0.1\ngini = 0.5\nsamples = 32\nvalue = [19, 36]\nclass = Real", fillcolor="#399de578"] ;
494 -> 502 ;
503 [label="diversity <= 0.1\ngini = 0.5\nsamples = 27\nvalue = [18, 30]\nclass = Real", fillcolor="#399de566"] ;
502 -> 503 ;
504 [label="gini = 0.4\nsamples = 13\nvalue = [7, 16]\nclass = Real", fillcolor="#399de58f"] ;
503 -> 504 ;
505 [label="diversity <= 0.1\ngini = 0.5\nsamples = 14\nvalue = [11, 14]\nclass = Real", fillcolor="#399de537"] ;
503 -> 505 ;
506 [label="gini = 0.0\nsamples = 2\nvalue = [4, 0]\nclass = Fake", fillcolor="#e58139ff"] ;
505 -> 506 ;
507 [label="gini = 0.4\nsamples = 12\nvalue = [7, 14]\nclass = Real", fillcolor="#399de57f"] ;
505 -> 507 ;
508 [label="diversity <= 0.1\ngini = 0.2\nsamples = 5\nvalue = [1, 6]\nclass = Real", fillcolor="#399de5d4"] ;
502 -> 508 ;
509 [label="gini = 0.0\nsamples = 2\nvalue = [0, 3]\nclass = Real", fillcolor="#399de5ff"] ;
508 -> 509 ;
510 [label="gini = 0.4\nsamples = 3\nvalue = [1, 3]\nclass = Real", fillcolor="#399de5aa"] ;
508 -> 510 ;
511 [label="gini = 0.0\nsamples = 18\nvalue = [33, 0]\nclass = Fake", fillcolor="#e58139ff"] ;
493 -> 511 ;
512 [label="diversity <= 0.1\ngini = 0.3\nsamples = 79\nvalue = [25, 99]\nclass = Real", fillcolor="#399de5bf"] ;
486 -> 512 ;
513 [label="diversity <= 0.1\ngini = 0.3\nsamples = 73\nvalue = [24, 91]\nclass = Real", fillcolor="#399de5bc"] ;
512 -> 513 ;
514 [label="gini = 0.3\nsamples = 58\nvalue = [19, 70]\nclass = Real", fillcolor="#399de5ba"] ;
513 -> 514 ;
515 [label="gini = 0.3\nsamples = 15\nvalue = [5, 21]\nclass = Real", fillcolor="#399de5c2"] ;
513 -> 515 ;
516 [label="diversity <= 0.1\ngini = 0.2\nsamples = 6\nvalue = [1, 8]\nclass = Real", fillcolor="#399de5df"] ;
512 -> 516 ;
517 [label="gini = 0.0\nsamples = 1\nvalue = [0, 2]\nclass = Real", fillcolor="#399de5ff"] ;
516 -> 517 ;
518 [label="gini = 0.2\nsamples = 5\nvalue = [1, 6]\nclass = Real", fillcolor="#399de5d4"] ;
516 -> 518 ;
519 [label="diversity <= 0.1\ngini = 0.2\nsamples = 90\nvalue = [138, 21]\nclass = Fake", fillcolor="#e58139d8"] ;
485 -> 519 ;
520 [label="gini = 0.0\nsamples = 64\nvalue = [114, 0]\nclass = Fake", fillcolor="#e58139ff"] ;
519 -> 520 ;
521 [label="diversity <= 0.1\ngini = 0.5\nsamples = 26\nvalue = [24, 21]\nclass = Fake", fillcolor="#e5813920"] ;
519 -> 521 ;
522 [label="gini = 0.0\nsamples = 4\nvalue = [0, 6]\nclass = Real", fillcolor="#399de5ff"] ;
521 -> 522 ;
523 [label="diversity <= 0.1\ngini = 0.5\nsamples = 22\nvalue = [24, 15]\nclass = Fake", fillcolor="#e5813960"] ;
521 -> 523 ;
524 [label="gini = 0.5\nsamples = 19\nvalue = [22, 13]\nclass = Fake", fillcolor="#e5813968"] ;
523 -> 524 ;
525 [label="gini = 0.5\nsamples = 3\nvalue = [2, 2]\nclass = Fake", fillcolor="#e5813900"] ;
523 -> 525 ;
526 [label="diversity <= 0.1\ngini = 0.4\nsamples = 161\nvalue = [76, 168]\nclass = Real", fillcolor="#399de58c"] ;
460 -> 526 ;
527 [label="diversity <= 0.1\ngini = 0.1\nsamples = 88\nvalue = [6, 134]\nclass = Real", fillcolor="#399de5f4"] ;
526 -> 527 ;
528 [label="gini = 0.0\nsamples = 3\nvalue = [0, 4]\nclass = Real", fillcolor="#399de5ff"] ;
527 -> 528 ;
529 [label="gini = 0.1\nsamples = 85\nvalue = [6, 130]\nclass = Real", fillcolor="#399de5f3"] ;
527 -> 529 ;
530 [label="diversity <= 0.1\ngini = 0.4\nsamples = 73\nvalue = [70, 34]\nclass = Fake", fillcolor="#e5813983"] ;
526 -> 530 ;
531 [label="diversity <= 0.1\ngini = 0.3\nsamples = 56\nvalue = [65, 16]\nclass = Fake", fillcolor="#e58139c0"] ;
530 -> 531 ;
532 [label="gini = 0.2\nsamples = 14\nvalue = [17, 2]\nclass = Fake", fillcolor="#e58139e1"] ;
531 -> 532 ;
533 [label="gini = 0.3\nsamples = 42\nvalue = [48, 14]\nclass = Fake", fillcolor="#e58139b5"] ;
531 -> 533 ;
534 [label="gini = 0.3\nsamples = 17\nvalue = [5, 18]\nclass = Real", fillcolor="#399de5b8"] ;
530 -> 534 ;
535 [label="diversity <= 0.1\ngini = 0.0\nsamples = 105\nvalue = [164, 4]\nclass = Fake", fillcolor="#e58139f9"] ;
459 -> 535 ;
536 [label="diversity <= 0.1\ngini = 0.3\nsamples = 11\nvalue = [16, 3]\nclass = Fake", fillcolor="#e58139cf"] ;
535 -> 536 ;
537 [label="gini = 0.1\nsamples = 9\nvalue = [16, 1]\nclass = Fake", fillcolor="#e58139ef"] ;
536 -> 537 ;
538 [label="gini = 0.0\nsamples = 2\nvalue = [0, 2]\nclass = Real", fillcolor="#399de5ff"] ;
536 -> 538 ;
539 [label="gini = 0.0\nsamples = 94\nvalue = [148, 1]\nclass = Fake", fillcolor="#e58139fd"] ;
535 -> 539 ;
540 [label="diversity <= 0.1\ngini = 0.5\nsamples = 9296\nvalue = [6981, 7740]\nclass = Real", fillcolor="#399de519"] ;
18 -> 540 ;
541 [label="diversity <= 0.1\ngini = 0.5\nsamples = 4134\nvalue = [2673, 3916]\nclass = Real", fillcolor="#399de551"] ;
540 -> 541 ;
542 [label="diversity <= 0.1\ngini = 0.5\nsamples = 3701\nvalue = [2632, 3256]\nclass = Real", fillcolor="#399de531"] ;
541 -> 542 ;
543 [label="diversity <= 0.1\ngini = 0.3\nsamples = 148\nvalue = [50, 176]\nclass = Real", fillcolor="#399de5b7"] ;
542 -> 543 ;
544 [label="diversity <= 0.1\ngini = 0.4\nsamples = 99\nvalue = [41, 109]\nclass = Real", fillcolor="#399de59f"] ;
543 -> 544 ;
545 [label="diversity <= 0.1\ngini = 0.3\nsamples = 20\nvalue = [5, 25]\nclass = Real", fillcolor="#399de5cc"] ;
544 -> 545 ;
546 [label="gini = 0.3\nsamples = 19\nvalue = [5, 23]\nclass = Real", fillcolor="#399de5c8"] ;
545 -> 546 ;
547 [label="gini = 0.0\nsamples = 1\nvalue = [0, 2]\nclass = Real", fillcolor="#399de5ff"] ;
545 -> 547 ;
548 [label="diversity <= 0.1\ngini = 0.4\nsamples = 79\nvalue = [36, 84]\nclass = Real", fillcolor="#399de592"] ;
544 -> 548 ;
549 [label="gini = 0.5\nsamples = 21\nvalue = [14, 16]\nclass = Real", fillcolor="#399de520"] ;
548 -> 549 ;
550 [label="diversity <= 0.1\ngini = 0.4\nsamples = 58\nvalue = [22, 68]\nclass = Real", fillcolor="#399de5ac"] ;
548 -> 550 ;
551 [label="gini = 0.0\nsamples = 15\nvalue = [0, 23]\nclass = Real", fillcolor="#399de5ff"] ;
550 -> 551 ;
552 [label="diversity <= 0.1\ngini = 0.4\nsamples = 43\nvalue = [22, 45]\nclass = Real", fillcolor="#399de582"] ;
550 -> 552 ;
553 [label="gini = 0.0\nsamples = 8\nvalue = [9, 0]\nclass = Fake", fillcolor="#e58139ff"] ;
552 -> 553 ;
554 [label="gini = 0.3\nsamples = 35\nvalue = [13, 45]\nclass = Real", fillcolor="#399de5b5"] ;
552 -> 554 ;
555 [label="diversity <= 0.1\ngini = 0.2\nsamples = 49\nvalue = [9, 67]\nclass = Real", fillcolor="#399de5dd"] ;
543 -> 555 ;
556 [label="gini = 0.0\nsamples = 3\nvalue = [0, 4]\nclass = Real", fillcolor="#399de5ff"] ;
555 -> 556 ;
557 [label="gini = 0.2\nsamples = 46\nvalue = [9, 63]\nclass = Real", fillcolor="#399de5db"] ;
555 -> 557 ;
558 [label="diversity <= 0.1\ngini = 0.5\nsamples = 3553\nvalue = [2582, 3080]\nclass = Real", fillcolor="#399de529"] ;
542 -> 558 ;
559 [label="diversity <= 0.1\ngini = 0.0\nsamples = 60\nvalue = [97, 2]\nclass = Fake", fillcolor="#e58139fa"] ;
558 -> 559 ;
560 [label="gini = 0.0\nsamples = 29\nvalue = [51, 0]\nclass = Fake", fillcolor="#e58139ff"] ;
559 -> 560 ;
561 [label="gini = 0.1\nsamples = 31\nvalue = [46, 2]\nclass = Fake", fillcolor="#e58139f4"] ;
559 -> 561 ;
562 [label="diversity <= 0.1\ngini = 0.5\nsamples = 3493\nvalue = [2485, 3078]\nclass = Real", fillcolor="#399de531"] ;
558 -> 562 ;
563 [label="diversity <= 0.1\ngini = 0.1\nsamples = 75\nvalue = [9, 106]\nclass = Real", fillcolor="#399de5e9"] ;
562 -> 563 ;
564 [label="diversity <= 0.1\ngini = 0.1\nsamples = 13\nvalue = [1, 20]\nclass = Real", fillcolor="#399de5f2"] ;
563 -> 564 ;
565 [label="gini = 0.0\nsamples = 1\nvalue = [0, 2]\nclass = Real", fillcolor="#399de5ff"] ;
564 -> 565 ;
566 [label="gini = 0.1\nsamples = 12\nvalue = [1, 18]\nclass = Real", fillcolor="#399de5f1"] ;
564 -> 566 ;
567 [label="gini = 0.2\nsamples = 62\nvalue = [8, 86]\nclass = Real", fillcolor="#399de5e7"] ;
563 -> 567 ;
568 [label="diversity <= 0.1\ngini = 0.5\nsamples = 3418\nvalue = [2476, 2972]\nclass = Real", fillcolor="#399de52b"] ;
562 -> 568 ;
569 [label="diversity <= 0.1\ngini = 0.4\nsamples = 160\nvalue = [202, 81]\nclass = Fake", fillcolor="#e5813999"] ;
568 -> 569 ;
570 [label="gini = 0.1\nsamples = 19\nvalue = [37, 2]\nclass = Fake", fillcolor="#e58139f1"] ;
569 -> 570 ;
571 [label="diversity <= 0.1\ngini = 0.4\nsamples = 141\nvalue = [165, 79]\nclass = Fake", fillcolor="#e5813985"] ;
569 -> 571 ;
572 [label="diversity <= 0.1\ngini = 0.4\nsamples = 24\nvalue = [11, 32]\nclass = Real", fillcolor="#399de5a7"] ;
571 -> 572 ;
573 [label="diversity <= 0.1\ngini = 0.1\nsamples = 9\nvalue = [1, 17]\nclass = Real", fillcolor="#399de5f0"] ;
572 -> 573 ;
574 [label="gini = 0.0\nsamples = 3\nvalue = [0, 5]\nclass = Real", fillcolor="#399de5ff"] ;
573 -> 574 ;
575 [label="gini = 0.1\nsamples = 6\nvalue = [1, 12]\nclass = Real", fillcolor="#399de5ea"] ;
573 -> 575 ;
576 [label="gini = 0.5\nsamples = 15\nvalue = [10, 15]\nclass = Real", fillcolor="#399de555"] ;
572 -> 576 ;
577 [label="diversity <= 0.1\ngini = 0.4\nsamples = 117\nvalue = [154, 47]\nclass = Fake", fillcolor="#e58139b1"] ;
571 -> 577 ;
578 [label="diversity <= 0.1\ngini = 0.4\nsamples = 104\nvalue = [130, 47]\nclass = Fake", fillcolor="#e58139a3"] ;
577 -> 578 ;
579 [label="diversity <= 0.1\ngini = 0.4\nsamples = 99\nvalue = [127, 40]\nclass = Fake", fillcolor="#e58139af"] ;
578 -> 579 ;
580 [label="gini = 0.4\nsamples = 19\nvalue = [25, 8]\nclass = Fake", fillcolor="#e58139ad"] ;
579 -> 580 ;
581 [label="gini = 0.4\nsamples = 80\nvalue = [102, 32]\nclass = Fake", fillcolor="#e58139af"] ;
579 -> 581 ;
582 [label="gini = 0.4\nsamples = 5\nvalue = [3, 7]\nclass = Real", fillcolor="#399de592"] ;
578 -> 582 ;
583 [label="gini = 0.0\nsamples = 13\nvalue = [24, 0]\nclass = Fake", fillcolor="#e58139ff"] ;
577 -> 583 ;
584 [label="diversity <= 0.1\ngini = 0.5\nsamples = 3258\nvalue = [2274, 2891]\nclass = Real", fillcolor="#399de536"] ;
568 -> 584 ;
585 [label="diversity <= 0.1\ngini = 0.4\nsamples = 237\nvalue = [90, 288]\nclass = Real", fillcolor="#399de5af"] ;
584 -> 585 ;
586 [label="diversity <= 0.1\ngini = 0.5\nsamples = 36\nvalue = [28, 31]\nclass = Real", fillcolor="#399de519"] ;
585 -> 586 ;
587 [label="diversity <= 0.1\ngini = 0.2\nsamples = 20\nvalue = [4, 27]\nclass = Real", fillcolor="#399de5d9"] ;
586 -> 587 ;
588 [label="gini = 0.3\nsamples = 16\nvalue = [4, 22]\nclass = Real", fillcolor="#399de5d1"] ;
587 -> 588 ;
589 [label="gini = 0.0\nsamples = 4\nvalue = [0, 5]\nclass = Real", fillcolor="#399de5ff"] ;
587 -> 589 ;
590 [label="gini = 0.2\nsamples = 16\nvalue = [24, 4]\nclass = Fake", fillcolor="#e58139d4"] ;
586 -> 590 ;
591 [label="diversity <= 0.1\ngini = 0.3\nsamples = 201\nvalue = [62, 257]\nclass = Real", fillcolor="#399de5c1"] ;
585 -> 591 ;
592 [label="gini = 0.1\nsamples = 69\nvalue = [8, 94]\nclass = Real", fillcolor="#399de5e9"] ;
591 -> 592 ;
593 [label="diversity <= 0.1\ngini = 0.4\nsamples = 132\nvalue = [54, 163]\nclass = Real", fillcolor="#399de5ab"] ;
591 -> 593 ;
594 [label="diversity <= 0.1\ngini = 0.3\nsamples = 13\nvalue = [5, 19]\nclass = Real", fillcolor="#399de5bc"] ;
593 -> 594 ;
595 [label="gini = 0.4\nsamples = 12\nvalue = [5, 17]\nclass = Real", fillcolor="#399de5b4"] ;
594 -> 595 ;
596 [label="gini = 0.0\nsamples = 1\nvalue = [0, 2]\nclass = Real", fillcolor="#399de5ff"] ;
594 -> 596 ;
597 [label="gini = 0.4\nsamples = 119\nvalue = [49, 144]\nclass = Real", fillcolor="#399de5a8"] ;
593 -> 597 ;
598 [label="diversity <= 0.1\ngini = 0.5\nsamples = 3021\nvalue = [2184, 2603]\nclass = Real", fillcolor="#399de529"] ;
584 -> 598 ;
599 [label="diversity <= 0.1\ngini = 0.5\nsamples = 785\nvalue = [717, 549]\nclass = Fake", fillcolor="#e581393c"] ;
598 -> 599 ;
600 [label="diversity <= 0.1\ngini = 0.5\nsamples = 635\nvalue = [493, 524]\nclass = Real", fillcolor="#399de50f"] ;
599 -> 600 ;
601 [label="diversity <= 0.1\ngini = 0.4\nsamples = 245\nvalue = [265, 127]\nclass = Fake", fillcolor="#e5813985"] ;
600 -> 601 ;
602 [label="diversity <= 0.1\ngini = 0.5\nsamples = 216\nvalue = [226, 125]\nclass = Fake", fillcolor="#e5813972"] ;
601 -> 602 ;
603 [label="diversity <= 0.1\ngini = 0.3\nsamples = 83\nvalue = [102, 25]\nclass = Fake", fillcolor="#e58139c0"] ;
602 -> 603 ;
604 [label="diversity <= 0.1\ngini = 0.5\nsamples = 27\nvalue = [17, 19]\nclass = Real", fillcolor="#399de51b"] ;
603 -> 604 ;
605 [label="gini = 0.2\nsamples = 13\nvalue = [15, 2]\nclass = Fake", fillcolor="#e58139dd"] ;
604 -> 605 ;
606 [label="diversity <= 0.1\ngini = 0.2\nsamples = 14\nvalue = [2, 17]\nclass = Real", fillcolor="#399de5e1"] ;
604 -> 606 ;
607 [label="gini = 0.2\nsamples = 9\nvalue = [1, 9]\nclass = Real", fillcolor="#399de5e3"] ;
606 -> 607 ;
608 [label="gini = 0.2\nsamples = 5\nvalue = [1, 8]\nclass = Real", fillcolor="#399de5df"] ;
606 -> 608 ;
609 [label="gini = 0.1\nsamples = 56\nvalue = [85, 6]\nclass = Fake", fillcolor="#e58139ed"] ;
603 -> 609 ;
610 [label="diversity <= 0.1\ngini = 0.5\nsamples = 133\nvalue = [124, 100]\nclass = Fake", fillcolor="#e5813931"] ;
602 -> 610 ;
611 [label="gini = 0.0\nsamples = 5\nvalue = [0, 10]\nclass = Real", fillcolor="#399de5ff"] ;
610 -> 611 ;
612 [label="diversity <= 0.1\ngini = 0.5\nsamples = 128\nvalue = [124, 90]\nclass = Fake", fillcolor="#e5813946"] ;
610 -> 612 ;
613 [label="gini = 0.0\nsamples = 11\nvalue = [20, 0]\nclass = Fake", fillcolor="#e58139ff"] ;
612 -> 613 ;
614 [label="diversity <= 0.1\ngini = 0.5\nsamples = 117\nvalue = [104, 90]\nclass = Fake", fillcolor="#e5813922"] ;
612 -> 614 ;
615 [label="gini = 0.0\nsamples = 10\nvalue = [0, 19]\nclass = Real", fillcolor="#399de5ff"] ;
614 -> 615 ;
616 [label="diversity <= 0.1\ngini = 0.5\nsamples = 107\nvalue = [104, 71]\nclass = Fake", fillcolor="#e5813951"] ;
614 -> 616 ;
617 [label="diversity <= 0.1\ngini = 0.5\nsamples = 95\nvalue = [99, 57]\nclass = Fake", fillcolor="#e581396c"] ;
616 -> 617 ;
618 [label="diversity <= 0.1\ngini = 0.5\nsamples = 64\nvalue = [52, 48]\nclass = Fake", fillcolor="#e5813914"] ;
617 -> 618 ;
619 [label="diversity <= 0.1\ngini = 0.5\nsamples = 49\nvalue = [51, 27]\nclass = Fake", fillcolor="#e5813978"] ;
618 -> 619 ;
620 [label="gini = 0.5\nsamples = 36\nvalue = [30, 27]\nclass = Fake", fillcolor="#e5813919"] ;
619 -> 620 ;
621 [label="gini = 0.0\nsamples = 13\nvalue = [21, 0]\nclass = Fake", fillcolor="#e58139ff"] ;
619 -> 621 ;
622 [label="gini = 0.1\nsamples = 15\nvalue = [1, 21]\nclass = Real", fillcolor="#399de5f3"] ;
618 -> 622 ;
623 [label="diversity <= 0.1\ngini = 0.3\nsamples = 31\nvalue = [47, 9]\nclass = Fake", fillcolor="#e58139ce"] ;
617 -> 623 ;
624 [label="diversity <= 0.1\ngini = 0.1\nsamples = 21\nvalue = [37, 2]\nclass = Fake", fillcolor="#e58139f1"] ;
623 -> 624 ;
625 [label="gini = 0.2\nsamples = 13\nvalue = [19, 2]\nclass = Fake", fillcolor="#e58139e4"] ;
624 -> 625 ;
626 [label="gini = 0.0\nsamples = 8\nvalue = [18, 0]\nclass = Fake", fillcolor="#e58139ff"] ;
624 -> 626 ;
627 [label="diversity <= 0.1\ngini = 0.5\nsamples = 10\nvalue = [10, 7]\nclass = Fake", fillcolor="#e581394d"] ;
623 -> 627 ;
628 [label="gini = 0.0\nsamples = 1\nvalue = [0, 1]\nclass = Real", fillcolor="#399de5ff"] ;
627 -> 628 ;
629 [label="gini = 0.5\nsamples = 9\nvalue = [10, 6]\nclass = Fake", fillcolor="#e5813966"] ;
627 -> 629 ;
630 [label="diversity <= 0.1\ngini = 0.4\nsamples = 12\nvalue = [5, 14]\nclass = Real", fillcolor="#399de5a4"] ;
616 -> 630 ;
631 [label="gini = 0.0\nsamples = 3\nvalue = [0, 7]\nclass = Real", fillcolor="#399de5ff"] ;
630 -> 631 ;
632 [label="gini = 0.5\nsamples = 9\nvalue = [5, 7]\nclass = Real", fillcolor="#399de549"] ;
630 -> 632 ;
633 [label="gini = 0.1\nsamples = 29\nvalue = [39, 2]\nclass = Fake", fillcolor="#e58139f2"] ;
601 -> 633 ;
634 [label="diversity <= 0.1\ngini = 0.5\nsamples = 390\nvalue = [228, 397]\nclass = Real", fillcolor="#399de56d"] ;
600 -> 634 ;
635 [label="diversity <= 0.1\ngini = 0.3\nsamples = 171\nvalue = [55, 225]\nclass = Real", fillcolor="#399de5c1"] ;
634 -> 635 ;
636 [label="diversity <= 0.1\ngini = 0.4\nsamples = 54\nvalue = [31, 61]\nclass = Real", fillcolor="#399de57d"] ;
635 -> 636 ;
637 [label="diversity <= 0.1\ngini = 0.2\nsamples = 40\nvalue = [8, 61]\nclass = Real", fillcolor="#399de5de"] ;
636 -> 637 ;
638 [label="diversity <= 0.1\ngini = 0.2\nsamples = 36\nvalue = [8, 55]\nclass = Real", fillcolor="#399de5da"] ;
637 -> 638 ;
639 [label="diversity <= 0.1\ngini = 0.1\nsamples = 8\nvalue = [1, 13]\nclass = Real", fillcolor="#399de5eb"] ;
638 -> 639 ;
640 [label="gini = 0.2\nsamples = 6\nvalue = [1, 10]\nclass = Real", fillcolor="#399de5e6"] ;
639 -> 640 ;
641 [label="gini = 0.0\nsamples = 2\nvalue = [0, 3]\nclass = Real", fillcolor="#399de5ff"] ;
639 -> 641 ;
642 [label="gini = 0.2\nsamples = 28\nvalue = [7, 42]\nclass = Real", fillcolor="#399de5d4"] ;
638 -> 642 ;
643 [label="gini = 0.0\nsamples = 4\nvalue = [0, 6]\nclass = Real", fillcolor="#399de5ff"] ;
637 -> 643 ;
644 [label="gini = 0.0\nsamples = 14\nvalue = [23, 0]\nclass = Fake", fillcolor="#e58139ff"] ;
636 -> 644 ;
645 [label="diversity <= 0.1\ngini = 0.2\nsamples = 117\nvalue = [24, 164]\nclass = Real", fillcolor="#399de5da"] ;
635 -> 645 ;
646 [label="gini = 0.2\nsamples = 112\nvalue = [24, 155]\nclass = Real", fillcolor="#399de5d8"] ;
645 -> 646 ;
647 [label="gini = 0.0\nsamples = 5\nvalue = [0, 9]\nclass = Real", fillcolor="#399de5ff"] ;
645 -> 647 ;
648 [label="diversity <= 0.1\ngini = 0.5\nsamples = 219\nvalue = [173, 172]\nclass = Fake", fillcolor="#e5813901"] ;
634 -> 648 ;
649 [label="diversity <= 0.1\ngini = 0.3\nsamples = 96\nvalue = [128, 27]\nclass = Fake", fillcolor="#e58139c9"] ;
648 -> 649 ;
650 [label="diversity <= 0.1\ngini = 0.4\nsamples = 39\nvalue = [45, 19]\nclass = Fake", fillcolor="#e5813993"] ;
649 -> 650 ;
651 [label="gini = 0.0\nsamples = 29\nvalue = [43, 1]\nclass = Fake", fillcolor="#e58139f9"] ;
650 -> 651 ;
652 [label="gini = 0.2\nsamples = 10\nvalue = [2, 18]\nclass = Real", fillcolor="#399de5e3"] ;
650 -> 652 ;
653 [label="gini = 0.2\nsamples = 57\nvalue = [83, 8]\nclass = Fake", fillcolor="#e58139e6"] ;
649 -> 653 ;
654 [label="diversity <= 0.1\ngini = 0.4\nsamples = 123\nvalue = [45, 145]\nclass = Real", fillcolor="#399de5b0"] ;
648 -> 654 ;
655 [label="gini = 0.4\nsamples = 83\nvalue = [32, 92]\nclass = Real", fillcolor="#399de5a6"] ;
654 -> 655 ;
656 [label="diversity <= 0.1\ngini = 0.3\nsamples = 40\nvalue = [13, 53]\nclass = Real", fillcolor="#399de5c0"] ;
654 -> 656 ;
657 [label="gini = 0.3\nsamples = 36\nvalue = [12, 50]\nclass = Real", fillcolor="#399de5c2"] ;
656 -> 657 ;
658 [label="gini = 0.4\nsamples = 4\nvalue = [1, 3]\nclass = Real", fillcolor="#399de5aa"] ;
656 -> 658 ;
659 [label="diversity <= 0.1\ngini = 0.2\nsamples = 150\nvalue = [224, 25]\nclass = Fake", fillcolor="#e58139e3"] ;
599 -> 659 ;
660 [label="diversity <= 0.1\ngini = 0.4\nsamples = 25\nvalue = [29, 12]\nclass = Fake", fillcolor="#e5813995"] ;
659 -> 660 ;
661 [label="gini = 0.4\nsamples = 23\nvalue = [29, 10]\nclass = Fake", fillcolor="#e58139a7"] ;
660 -> 661 ;
662 [label="gini = 0.0\nsamples = 2\nvalue = [0, 2]\nclass = Real", fillcolor="#399de5ff"] ;
660 -> 662 ;
663 [label="diversity <= 0.1\ngini = 0.1\nsamples = 125\nvalue = [195, 13]\nclass = Fake", fillcolor="#e58139ee"] ;
659 -> 663 ;
664 [label="gini = 0.0\nsamples = 87\nvalue = [144, 0]\nclass = Fake", fillcolor="#e58139ff"] ;
663 -> 664 ;
665 [label="diversity <= 0.1\ngini = 0.3\nsamples = 38\nvalue = [51, 13]\nclass = Fake", fillcolor="#e58139be"] ;
663 -> 665 ;
666 [label="gini = 0.0\nsamples = 9\nvalue = [0, 13]\nclass = Real", fillcolor="#399de5ff"] ;
665 -> 666 ;
667 [label="gini = 0.0\nsamples = 29\nvalue = [51, 0]\nclass = Fake", fillcolor="#e58139ff"] ;
665 -> 667 ;
668 [label="diversity <= 0.1\ngini = 0.5\nsamples = 2236\nvalue = [1467, 2054]\nclass = Real", fillcolor="#399de549"] ;
598 -> 668 ;
669 [label="diversity <= 0.1\ngini = 0.4\nsamples = 955\nvalue = [456, 1068]\nclass = Real", fillcolor="#399de592"] ;
668 -> 669 ;
670 [label="diversity <= 0.1\ngini = 0.5\nsamples = 411\nvalue = [267, 382]\nclass = Real", fillcolor="#399de54d"] ;
669 -> 670 ;
671 [label="diversity <= 0.1\ngini = 0.2\nsamples = 146\nvalue = [23, 203]\nclass = Real", fillcolor="#399de5e2"] ;
670 -> 671 ;
672 [label="gini = 0.0\nsamples = 89\nvalue = [0, 139]\nclass = Real", fillcolor="#399de5ff"] ;
671 -> 672 ;
673 [label="diversity <= 0.1\ngini = 0.4\nsamples = 57\nvalue = [23, 64]\nclass = Real", fillcolor="#399de5a3"] ;
671 -> 673 ;
674 [label="gini = 0.5\nsamples = 6\nvalue = [5, 5]\nclass = Fake", fillcolor="#e5813900"] ;
673 -> 674 ;
675 [label="gini = 0.4\nsamples = 51\nvalue = [18, 59]\nclass = Real", fillcolor="#399de5b1"] ;
673 -> 675 ;
676 [label="diversity <= 0.1\ngini = 0.5\nsamples = 265\nvalue = [244, 179]\nclass = Fake", fillcolor="#e5813944"] ;
670 -> 676 ;
677 [label="diversity <= 0.1\ngini = 0.2\nsamples = 88\nvalue = [127, 13]\nclass = Fake", fillcolor="#e58139e5"] ;
676 -> 677 ;
678 [label="gini = 0.2\nsamples = 86\nvalue = [125, 13]\nclass = Fake", fillcolor="#e58139e4"] ;
677 -> 678 ;
679 [label="gini = 0.0\nsamples = 2\nvalue = [2, 0]\nclass = Fake", fillcolor="#e58139ff"] ;
677 -> 679 ;
680 [label="diversity <= 0.1\ngini = 0.5\nsamples = 177\nvalue = [117, 166]\nclass = Real", fillcolor="#399de54b"] ;
676 -> 680 ;
681 [label="diversity <= 0.1\ngini = 0.1\nsamples = 77\nvalue = [10, 117]\nclass = Real", fillcolor="#399de5e9"] ;
680 -> 681 ;
682 [label="gini = 0.0\nsamples = 8\nvalue = [0, 16]\nclass = Real", fillcolor="#399de5ff"] ;
681 -> 682 ;
683 [label="diversity <= 0.1\ngini = 0.2\nsamples = 69\nvalue = [10, 101]\nclass = Real", fillcolor="#399de5e6"] ;
681 -> 683 ;
684 [label="gini = 0.2\nsamples = 14\nvalue = [3, 18]\nclass = Real", fillcolor="#399de5d4"] ;
683 -> 684 ;
685 [label="gini = 0.1\nsamples = 55\nvalue = [7, 83]\nclass = Real", fillcolor="#399de5e9"] ;
683 -> 685 ;
686 [label="diversity <= 0.1\ngini = 0.4\nsamples = 100\nvalue = [107, 49]\nclass = Fake", fillcolor="#e581398a"] ;
680 -> 686 ;
687 [label="diversity <= 0.1\ngini = 0.3\nsamples = 40\nvalue = [54, 12]\nclass = Fake", fillcolor="#e58139c6"] ;
686 -> 687 ;
688 [label="diversity <= 0.1\ngini = 0.4\nsamples = 12\nvalue = [18, 8]\nclass = Fake", fillcolor="#e581398e"] ;
687 -> 688 ;
689 [label="gini = 0.2\nsamples = 11\nvalue = [18, 3]\nclass = Fake", fillcolor="#e58139d4"] ;
688 -> 689 ;
690 [label="gini = 0.0\nsamples = 1\nvalue = [0, 5]\nclass = Real", fillcolor="#399de5ff"] ;
688 -> 690 ;
691 [label="gini = 0.2\nsamples = 28\nvalue = [36, 4]\nclass = Fake", fillcolor="#e58139e3"] ;
687 -> 691 ;
692 [label="gini = 0.5\nsamples = 60\nvalue = [53, 37]\nclass = Fake", fillcolor="#e581394d"] ;
686 -> 692 ;
693 [label="diversity <= 0.1\ngini = 0.3\nsamples = 544\nvalue = [189, 686]\nclass = Real", fillcolor="#399de5b9"] ;
669 -> 693 ;
694 [label="diversity <= 0.1\ngini = 0.0\nsamples = 139\nvalue = [5, 222]\nclass = Real", fillcolor="#399de5f9"] ;
693 -> 694 ;
695 [label="gini = 0.0\nsamples = 43\nvalue = [0, 71]\nclass = Real", fillcolor="#399de5ff"] ;
694 -> 695 ;
696 [label="diversity <= 0.1\ngini = 0.1\nsamples = 96\nvalue = [5, 151]\nclass = Real", fillcolor="#399de5f7"] ;
694 -> 696 ;
697 [label="gini = 0.1\nsamples = 71\nvalue = [4, 109]\nclass = Real", fillcolor="#399de5f6"] ;
696 -> 697 ;
698 [label="gini = 0.0\nsamples = 25\nvalue = [1, 42]\nclass = Real", fillcolor="#399de5f9"] ;
696 -> 698 ;
699 [label="diversity <= 0.1\ngini = 0.4\nsamples = 405\nvalue = [184, 464]\nclass = Real", fillcolor="#399de59a"] ;
693 -> 699 ;
700 [label="gini = 0.0\nsamples = 31\nvalue = [60, 0]\nclass = Fake", fillcolor="#e58139ff"] ;
699 -> 700 ;
701 [label="diversity <= 0.1\ngini = 0.3\nsamples = 374\nvalue = [124, 464]\nclass = Real", fillcolor="#399de5bb"] ;
699 -> 701 ;
702 [label="diversity <= 0.1\ngini = 0.5\nsamples = 91\nvalue = [50, 87]\nclass = Real", fillcolor="#399de56c"] ;
701 -> 702 ;
703 [label="diversity <= 0.1\ngini = 0.2\nsamples = 67\nvalue = [11, 82]\nclass = Real", fillcolor="#399de5dd"] ;
702 -> 703 ;
704 [label="diversity <= 0.1\ngini = 0.5\nsamples = 18\nvalue = [11, 15]\nclass = Real", fillcolor="#399de544"] ;
703 -> 704 ;
705 [label="gini = 0.4\nsamples = 15\nvalue = [5, 15]\nclass = Real", fillcolor="#399de5aa"] ;
704 -> 705 ;
706 [label="gini = 0.0\nsamples = 3\nvalue = [6, 0]\nclass = Fake", fillcolor="#e58139ff"] ;
704 -> 706 ;
707 [label="gini = 0.0\nsamples = 49\nvalue = [0, 67]\nclass = Real", fillcolor="#399de5ff"] ;
703 -> 707 ;
708 [label="diversity <= 0.1\ngini = 0.2\nsamples = 24\nvalue = [39, 5]\nclass = Fake", fillcolor="#e58139de"] ;
702 -> 708 ;
709 [label="gini = 0.0\nsamples = 7\nvalue = [18, 0]\nclass = Fake", fillcolor="#e58139ff"] ;
708 -> 709 ;
710 [label="gini = 0.3\nsamples = 17\nvalue = [21, 5]\nclass = Fake", fillcolor="#e58139c2"] ;
708 -> 710 ;
711 [label="gini = 0.3\nsamples = 283\nvalue = [74, 377]\nclass = Real", fillcolor="#399de5cd"] ;
701 -> 711 ;
712 [label="diversity <= 0.1\ngini = 0.5\nsamples = 1281\nvalue = [1011, 986]\nclass = Fake", fillcolor="#e5813906"] ;
668 -> 712 ;
713 [label="diversity <= 0.1\ngini = 0.3\nsamples = 216\nvalue = [293, 58]\nclass = Fake", fillcolor="#e58139cd"] ;
712 -> 713 ;
714 [label="gini = 0.0\nsamples = 4\nvalue = [7, 0]\nclass = Fake", fillcolor="#e58139ff"] ;
713 -> 714 ;
715 [label="gini = 0.3\nsamples = 212\nvalue = [286, 58]\nclass = Fake", fillcolor="#e58139cb"] ;
713 -> 715 ;
716 [label="diversity <= 0.1\ngini = 0.5\nsamples = 1065\nvalue = [718, 928]\nclass = Real", fillcolor="#399de53a"] ;
712 -> 716 ;
717 [label="diversity <= 0.1\ngini = 0.4\nsamples = 464\nvalue = [221, 506]\nclass = Real", fillcolor="#399de590"] ;
716 -> 717 ;
718 [label="diversity <= 0.1\ngini = 0.5\nsamples = 147\nvalue = [119, 90]\nclass = Fake", fillcolor="#e581393e"] ;
717 -> 718 ;
719 [label="diversity <= 0.1\ngini = 0.3\nsamples = 71\nvalue = [15, 79]\nclass = Real", fillcolor="#399de5cf"] ;
718 -> 719 ;
720 [label="diversity <= 0.1\ngini = 0.5\nsamples = 12\nvalue = [8, 9]\nclass = Real", fillcolor="#399de51c"] ;
719 -> 720 ;
721 [label="gini = 0.3\nsamples = 5\nvalue = [1, 5]\nclass = Real", fillcolor="#399de5cc"] ;
720 -> 721 ;
722 [label="gini = 0.5\nsamples = 7\nvalue = [7, 4]\nclass = Fake", fillcolor="#e581396d"] ;
720 -> 722 ;
723 [label="diversity <= 0.1\ngini = 0.2\nsamples = 59\nvalue = [7, 70]\nclass = Real", fillcolor="#399de5e6"] ;
719 -> 723 ;
724 [label="gini = 0.2\nsamples = 27\nvalue = [5, 31]\nclass = Real", fillcolor="#399de5d6"] ;
723 -> 724 ;
725 [label="diversity <= 0.1\ngini = 0.1\nsamples = 32\nvalue = [2, 39]\nclass = Real", fillcolor="#399de5f2"] ;
723 -> 725 ;
726 [label="diversity <= 0.1\ngini = 0.1\nsamples = 23\nvalue = [1, 28]\nclass = Real", fillcolor="#399de5f6"] ;
725 -> 726 ;
727 [label="gini = 0.1\nsamples = 13\nvalue = [1, 15]\nclass = Real", fillcolor="#399de5ee"] ;
726 -> 727 ;
728 [label="gini = 0.0\nsamples = 10\nvalue = [0, 13]\nclass = Real", fillcolor="#399de5ff"] ;
726 -> 728 ;
729 [label="diversity <= 0.1\ngini = 0.2\nsamples = 9\nvalue = [1, 11]\nclass = Real", fillcolor="#399de5e8"] ;
725 -> 729 ;
730 [label="gini = 0.2\nsamples = 6\nvalue = [1, 6]\nclass = Real", fillcolor="#399de5d4"] ;
729 -> 730 ;
731 [label="gini = 0.0\nsamples = 3\nvalue = [0, 5]\nclass = Real", fillcolor="#399de5ff"] ;
729 -> 731 ;
732 [label="diversity <= 0.1\ngini = 0.2\nsamples = 76\nvalue = [104, 11]\nclass = Fake", fillcolor="#e58139e4"] ;
718 -> 732 ;
733 [label="diversity <= 0.1\ngini = 0.1\nsamples = 69\nvalue = [99, 5]\nclass = Fake", fillcolor="#e58139f2"] ;
732 -> 733 ;
734 [label="diversity <= 0.1\ngini = 0.2\nsamples = 9\nvalue = [12, 2]\nclass = Fake", fillcolor="#e58139d4"] ;
733 -> 734 ;
735 [label="gini = 0.0\nsamples = 7\nvalue = [12, 0]\nclass = Fake", fillcolor="#e58139ff"] ;
734 -> 735 ;
736 [label="gini = 0.0\nsamples = 2\nvalue = [0, 2]\nclass = Real", fillcolor="#399de5ff"] ;
734 -> 736 ;
737 [label="diversity <= 0.1\ngini = 0.1\nsamples = 60\nvalue = [87, 3]\nclass = Fake", fillcolor="#e58139f6"] ;
733 -> 737 ;
738 [label="gini = 0.0\nsamples = 41\nvalue = [63, 0]\nclass = Fake", fillcolor="#e58139ff"] ;
737 -> 738 ;
739 [label="diversity <= 0.1\ngini = 0.2\nsamples = 19\nvalue = [24, 3]\nclass = Fake", fillcolor="#e58139df"] ;
737 -> 739 ;
740 [label="gini = 0.4\nsamples = 3\nvalue = [2, 1]\nclass = Fake", fillcolor="#e581397f"] ;
739 -> 740 ;
741 [label="gini = 0.2\nsamples = 16\nvalue = [22, 2]\nclass = Fake", fillcolor="#e58139e8"] ;
739 -> 741 ;
742 [label="diversity <= 0.1\ngini = 0.5\nsamples = 7\nvalue = [5, 6]\nclass = Real", fillcolor="#399de52a"] ;
732 -> 742 ;
743 [label="gini = 0.5\nsamples = 4\nvalue = [3, 3]\nclass = Fake", fillcolor="#e5813900"] ;
742 -> 743 ;
744 [label="gini = 0.5\nsamples = 3\nvalue = [2, 3]\nclass = Real", fillcolor="#399de555"] ;
742 -> 744 ;
745 [label="diversity <= 0.1\ngini = 0.3\nsamples = 317\nvalue = [102, 416]\nclass = Real", fillcolor="#399de5c0"] ;
717 -> 745 ;
746 [label="diversity <= 0.1\ngini = 0.4\nsamples = 214\nvalue = [94, 241]\nclass = Real", fillcolor="#399de59c"] ;
745 -> 746 ;
747 [label="diversity <= 0.1\ngini = 0.3\nsamples = 187\nvalue = [64, 222]\nclass = Real", fillcolor="#399de5b5"] ;
746 -> 747 ;
748 [label="gini = 0.0\nsamples = 15\nvalue = [0, 29]\nclass = Real", fillcolor="#399de5ff"] ;
747 -> 748 ;
749 [label="gini = 0.4\nsamples = 172\nvalue = [64, 193]\nclass = Real", fillcolor="#399de5aa"] ;
747 -> 749 ;
750 [label="diversity <= 0.1\ngini = 0.5\nsamples = 27\nvalue = [30, 19]\nclass = Fake", fillcolor="#e581395e"] ;
746 -> 750 ;
751 [label="gini = 0.5\nsamples = 21\nvalue = [21, 19]\nclass = Fake", fillcolor="#e5813918"] ;
750 -> 751 ;
752 [label="gini = 0.0\nsamples = 6\nvalue = [9, 0]\nclass = Fake", fillcolor="#e58139ff"] ;
750 -> 752 ;
753 [label="diversity <= 0.1\ngini = 0.1\nsamples = 103\nvalue = [8, 175]\nclass = Real", fillcolor="#399de5f3"] ;
745 -> 753 ;
754 [label="gini = 0.1\nsamples = 89\nvalue = [8, 148]\nclass = Real", fillcolor="#399de5f1"] ;
753 -> 754 ;
755 [label="gini = 0.0\nsamples = 14\nvalue = [0, 27]\nclass = Real", fillcolor="#399de5ff"] ;
753 -> 755 ;
756 [label="diversity <= 0.1\ngini = 0.5\nsamples = 601\nvalue = [497, 422]\nclass = Fake", fillcolor="#e5813926"] ;
716 -> 756 ;
757 [label="diversity <= 0.1\ngini = 0.3\nsamples = 261\nvalue = [304, 86]\nclass = Fake", fillcolor="#e58139b7"] ;
756 -> 757 ;
758 [label="diversity <= 0.1\ngini = 0.1\nsamples = 80\nvalue = [112, 3]\nclass = Fake", fillcolor="#e58139f8"] ;
757 -> 758 ;
759 [label="gini = 0.0\nsamples = 42\nvalue = [57, 0]\nclass = Fake", fillcolor="#e58139ff"] ;
758 -> 759 ;
760 [label="gini = 0.1\nsamples = 38\nvalue = [55, 3]\nclass = Fake", fillcolor="#e58139f1"] ;
758 -> 760 ;
761 [label="diversity <= 0.1\ngini = 0.4\nsamples = 181\nvalue = [192, 83]\nclass = Fake", fillcolor="#e5813991"] ;
757 -> 761 ;
762 [label="diversity <= 0.1\ngini = 0.4\nsamples = 58\nvalue = [19, 65]\nclass = Real", fillcolor="#399de5b4"] ;
761 -> 762 ;
763 [label="gini = 0.3\nsamples = 9\nvalue = [12, 3]\nclass = Fake", fillcolor="#e58139bf"] ;
762 -> 763 ;
764 [label="diversity <= 0.1\ngini = 0.2\nsamples = 49\nvalue = [7, 62]\nclass = Real", fillcolor="#399de5e2"] ;
762 -> 764 ;
765 [label="gini = 0.2\nsamples = 35\nvalue = [7, 45]\nclass = Real", fillcolor="#399de5d7"] ;
764 -> 765 ;
766 [label="gini = 0.0\nsamples = 14\nvalue = [0, 17]\nclass = Real", fillcolor="#399de5ff"] ;
764 -> 766 ;
767 [label="diversity <= 0.1\ngini = 0.2\nsamples = 123\nvalue = [173, 18]\nclass = Fake", fillcolor="#e58139e4"] ;
761 -> 767 ;
768 [label="diversity <= 0.1\ngini = 0.1\nsamples = 114\nvalue = [157, 13]\nclass = Fake", fillcolor="#e58139ea"] ;
767 -> 768 ;
769 [label="gini = 0.0\nsamples = 9\nvalue = [13, 0]\nclass = Fake", fillcolor="#e58139ff"] ;
768 -> 769 ;
770 [label="diversity <= 0.1\ngini = 0.2\nsamples = 105\nvalue = [144, 13]\nclass = Fake", fillcolor="#e58139e8"] ;
768 -> 770 ;
771 [label="gini = 0.2\nsamples = 104\nvalue = [143, 13]\nclass = Fake", fillcolor="#e58139e8"] ;
770 -> 771 ;
772 [label="gini = 0.0\nsamples = 1\nvalue = [1, 0]\nclass = Fake", fillcolor="#e58139ff"] ;
770 -> 772 ;
773 [label="diversity <= 0.1\ngini = 0.4\nsamples = 9\nvalue = [16, 5]\nclass = Fake", fillcolor="#e58139af"] ;
767 -> 773 ;
774 [label="gini = 0.0\nsamples = 3\nvalue = [0, 5]\nclass = Real", fillcolor="#399de5ff"] ;
773 -> 774 ;
775 [label="gini = 0.0\nsamples = 6\nvalue = [16, 0]\nclass = Fake", fillcolor="#e58139ff"] ;
773 -> 775 ;
776 [label="diversity <= 0.1\ngini = 0.5\nsamples = 340\nvalue = [193, 336]\nclass = Real", fillcolor="#399de56d"] ;
756 -> 776 ;
777 [label="diversity <= 0.1\ngini = 0.2\nsamples = 107\nvalue = [21, 148]\nclass = Real", fillcolor="#399de5db"] ;
776 -> 777 ;
778 [label="diversity <= 0.1\ngini = 0.3\nsamples = 80\nvalue = [21, 107]\nclass = Real", fillcolor="#399de5cd"] ;
777 -> 778 ;
779 [label="diversity <= 0.1\ngini = 0.2\nsamples = 77\nvalue = [16, 107]\nclass = Real", fillcolor="#399de5d9"] ;
778 -> 779 ;
780 [label="gini = 0.2\nsamples = 66\nvalue = [10, 97]\nclass = Real", fillcolor="#399de5e5"] ;
779 -> 780 ;
781 [label="diversity <= 0.1\ngini = 0.5\nsamples = 11\nvalue = [6, 10]\nclass = Real", fillcolor="#399de566"] ;
779 -> 781 ;
782 [label="gini = 0.5\nsamples = 10\nvalue = [6, 9]\nclass = Real", fillcolor="#399de555"] ;
781 -> 782 ;
783 [label="gini = 0.0\nsamples = 1\nvalue = [0, 1]\nclass = Real", fillcolor="#399de5ff"] ;
781 -> 783 ;
784 [label="gini = 0.0\nsamples = 3\nvalue = [5, 0]\nclass = Fake", fillcolor="#e58139ff"] ;
778 -> 784 ;
785 [label="gini = 0.0\nsamples = 27\nvalue = [0, 41]\nclass = Real", fillcolor="#399de5ff"] ;
777 -> 785 ;
786 [label="diversity <= 0.1\ngini = 0.5\nsamples = 233\nvalue = [172, 188]\nclass = Real", fillcolor="#399de516"] ;
776 -> 786 ;
787 [label="diversity <= 0.1\ngini = 0.5\nsamples = 221\nvalue = [156, 188]\nclass = Real", fillcolor="#399de52b"] ;
786 -> 787 ;
788 [label="diversity <= 0.1\ngini = 0.5\nsamples = 156\nvalue = [128, 106]\nclass = Fake", fillcolor="#e581392c"] ;
787 -> 788 ;
789 [label="diversity <= 0.1\ngini = 0.5\nsamples = 146\nvalue = [110, 106]\nclass = Fake", fillcolor="#e5813909"] ;
788 -> 789 ;
790 [label="gini = 0.5\nsamples = 109\nvalue = [73, 84]\nclass = Real", fillcolor="#399de521"] ;
789 -> 790 ;
791 [label="diversity <= 0.1\ngini = 0.5\nsamples = 37\nvalue = [37, 22]\nclass = Fake", fillcolor="#e5813967"] ;
789 -> 791 ;
792 [label="diversity <= 0.1\ngini = 0.5\nsamples = 36\nvalue = [37, 20]\nclass = Fake", fillcolor="#e5813975"] ;
791 -> 792 ;
793 [label="gini = 0.5\nsamples = 26\nvalue = [27, 16]\nclass = Fake", fillcolor="#e5813968"] ;
792 -> 793 ;
794 [label="gini = 0.4\nsamples = 10\nvalue = [10, 4]\nclass = Fake", fillcolor="#e5813999"] ;
792 -> 794 ;
795 [label="gini = 0.0\nsamples = 1\nvalue = [0, 2]\nclass = Real", fillcolor="#399de5ff"] ;
791 -> 795 ;
796 [label="gini = 0.0\nsamples = 10\nvalue = [18, 0]\nclass = Fake", fillcolor="#e58139ff"] ;
788 -> 796 ;
797 [label="diversity <= 0.1\ngini = 0.4\nsamples = 65\nvalue = [28, 82]\nclass = Real", fillcolor="#399de5a8"] ;
787 -> 797 ;
798 [label="diversity <= 0.1\ngini = 0.3\nsamples = 57\nvalue = [21, 78]\nclass = Real", fillcolor="#399de5ba"] ;
797 -> 798 ;
799 [label="diversity <= 0.1\ngini = 0.3\nsamples = 24\nvalue = [8, 34]\nclass = Real", fillcolor="#399de5c3"] ;
798 -> 799 ;
800 [label="gini = 0.3\nsamples = 22\nvalue = [8, 32]\nclass = Real", fillcolor="#399de5bf"] ;
799 -> 800 ;
801 [label="gini = 0.0\nsamples = 2\nvalue = [0, 2]\nclass = Real", fillcolor="#399de5ff"] ;
799 -> 801 ;
802 [label="diversity <= 0.1\ngini = 0.4\nsamples = 33\nvalue = [13, 44]\nclass = Real", fillcolor="#399de5b4"] ;
798 -> 802 ;
803 [label="gini = 0.4\nsamples = 25\nvalue = [11, 35]\nclass = Real", fillcolor="#399de5af"] ;
802 -> 803 ;
804 [label="gini = 0.3\nsamples = 8\nvalue = [2, 9]\nclass = Real", fillcolor="#399de5c6"] ;
802 -> 804 ;
805 [label="diversity <= 0.1\ngini = 0.5\nsamples = 8\nvalue = [7, 4]\nclass = Fake", fillcolor="#e581396d"] ;
797 -> 805 ;
806 [label="gini = 0.3\nsamples = 6\nvalue = [7, 2]\nclass = Fake", fillcolor="#e58139b6"] ;
805 -> 806 ;
807 [label="gini = 0.0\nsamples = 2\nvalue = [0, 2]\nclass = Real", fillcolor="#399de5ff"] ;
805 -> 807 ;
808 [label="gini = 0.0\nsamples = 12\nvalue = [16, 0]\nclass = Fake", fillcolor="#e58139ff"] ;
786 -> 808 ;
809 [label="diversity <= 0.1\ngini = 0.1\nsamples = 433\nvalue = [41, 660]\nclass = Real", fillcolor="#399de5ef"] ;
541 -> 809 ;
810 [label="diversity <= 0.1\ngini = 0.0\nsamples = 40\nvalue = [1, 67]\nclass = Real", fillcolor="#399de5fb"] ;
809 -> 810 ;
811 [label="gini = 0.0\nsamples = 1\nvalue = [0, 3]\nclass = Real", fillcolor="#399de5ff"] ;
810 -> 811 ;
812 [label="gini = 0.0\nsamples = 39\nvalue = [1, 64]\nclass = Real", fillcolor="#399de5fb"] ;
810 -> 812 ;
813 [label="diversity <= 0.1\ngini = 0.1\nsamples = 393\nvalue = [40, 593]\nclass = Real", fillcolor="#399de5ee"] ;
809 -> 813 ;
814 [label="gini = 0.0\nsamples = 3\nvalue = [4, 0]\nclass = Fake", fillcolor="#e58139ff"] ;
813 -> 814 ;
815 [label="diversity <= 0.1\ngini = 0.1\nsamples = 390\nvalue = [36, 593]\nclass = Real", fillcolor="#399de5f0"] ;
813 -> 815 ;
816 [label="gini = 0.0\nsamples = 26\nvalue = [1, 38]\nclass = Real", fillcolor="#399de5f8"] ;
815 -> 816 ;
817 [label="gini = 0.1\nsamples = 364\nvalue = [35, 555]\nclass = Real", fillcolor="#399de5ef"] ;
815 -> 817 ;
818 [label="diversity <= 0.1\ngini = 0.5\nsamples = 5162\nvalue = [4308, 3824]\nclass = Fake", fillcolor="#e581391d"] ;
540 -> 818 ;
819 [label="diversity <= 0.1\ngini = 0.1\nsamples = 297\nvalue = [448, 18]\nclass = Fake", fillcolor="#e58139f5"] ;
818 -> 819 ;
820 [label="diversity <= 0.1\ngini = 0.1\nsamples = 263\nvalue = [404, 11]\nclass = Fake", fillcolor="#e58139f8"] ;
819 -> 820 ;
821 [label="diversity <= 0.1\ngini = 0.1\nsamples = 229\nvalue = [348, 11]\nclass = Fake", fillcolor="#e58139f7"] ;
820 -> 821 ;
822 [label="gini = 0.0\nsamples = 11\nvalue = [16, 0]\nclass = Fake", fillcolor="#e58139ff"] ;
821 -> 822 ;
823 [label="gini = 0.1\nsamples = 218\nvalue = [332, 11]\nclass = Fake", fillcolor="#e58139f7"] ;
821 -> 823 ;
824 [label="gini = 0.0\nsamples = 34\nvalue = [56, 0]\nclass = Fake", fillcolor="#e58139ff"] ;
820 -> 824 ;
825 [label="diversity <= 0.1\ngini = 0.2\nsamples = 34\nvalue = [44, 7]\nclass = Fake", fillcolor="#e58139d6"] ;
819 -> 825 ;
826 [label="diversity <= 0.1\ngini = 0.5\nsamples = 8\nvalue = [4, 7]\nclass = Real", fillcolor="#399de56d"] ;
825 -> 826 ;
827 [label="diversity <= 0.1\ngini = 0.5\nsamples = 4\nvalue = [4, 3]\nclass = Fake", fillcolor="#e5813940"] ;
826 -> 827 ;
828 [label="gini = 0.0\nsamples = 2\nvalue = [0, 3]\nclass = Real", fillcolor="#399de5ff"] ;
827 -> 828 ;
829 [label="gini = 0.0\nsamples = 2\nvalue = [4, 0]\nclass = Fake", fillcolor="#e58139ff"] ;
827 -> 829 ;
830 [label="gini = 0.0\nsamples = 4\nvalue = [0, 4]\nclass = Real", fillcolor="#399de5ff"] ;
826 -> 830 ;
831 [label="gini = 0.0\nsamples = 26\nvalue = [40, 0]\nclass = Fake", fillcolor="#e58139ff"] ;
825 -> 831 ;
832 [label="diversity <= 0.2\ngini = 0.5\nsamples = 4865\nvalue = [3860, 3806]\nclass = Fake", fillcolor="#e5813904"] ;
818 -> 832 ;
833 [label="diversity <= 0.1\ngini = 0.5\nsamples = 4784\nvalue = [3739, 3800]\nclass = Real", fillcolor="#399de504"] ;
832 -> 833 ;
834 [label="diversity <= 0.1\ngini = 0.4\nsamples = 255\nvalue = [113, 297]\nclass = Real", fillcolor="#399de59e"] ;
833 -> 834 ;
835 [label="diversity <= 0.1\ngini = 0.5\nsamples = 63\nvalue = [55, 47]\nclass = Fake", fillcolor="#e5813925"] ;
834 -> 835 ;
836 [label="diversity <= 0.1\ngini = 0.5\nsamples = 52\nvalue = [39, 47]\nclass = Real", fillcolor="#399de52b"] ;
835 -> 836 ;
837 [label="diversity <= 0.1\ngini = 0.5\nsamples = 42\nvalue = [38, 31]\nclass = Fake", fillcolor="#e581392f"] ;
836 -> 837 ;
838 [label="diversity <= 0.1\ngini = 0.5\nsamples = 30\nvalue = [18, 31]\nclass = Real", fillcolor="#399de56b"] ;
837 -> 838 ;
839 [label="diversity <= 0.1\ngini = 0.5\nsamples = 23\nvalue = [18, 19]\nclass = Real", fillcolor="#399de50d"] ;
838 -> 839 ;
840 [label="diversity <= 0.1\ngini = 0.4\nsamples = 17\nvalue = [8, 19]\nclass = Real", fillcolor="#399de594"] ;
839 -> 840 ;
841 [label="diversity <= 0.1\ngini = 0.5\nsamples = 13\nvalue = [8, 10]\nclass = Real", fillcolor="#399de533"] ;
840 -> 841 ;
842 [label="gini = 0.0\nsamples = 1\nvalue = [0, 2]\nclass = Real", fillcolor="#399de5ff"] ;
841 -> 842 ;
843 [label="diversity <= 0.1\ngini = 0.5\nsamples = 12\nvalue = [8, 8]\nclass = Fake", fillcolor="#e5813900"] ;
841 -> 843 ;
844 [label="gini = 0.0\nsamples = 1\nvalue = [2, 0]\nclass = Fake", fillcolor="#e58139ff"] ;
843 -> 844 ;
845 [label="diversity <= 0.1\ngini = 0.5\nsamples = 11\nvalue = [6, 8]\nclass = Real", fillcolor="#399de540"] ;
843 -> 845 ;
846 [label="gini = 0.5\nsamples = 10\nvalue = [5, 8]\nclass = Real", fillcolor="#399de560"] ;
845 -> 846 ;
847 [label="gini = 0.0\nsamples = 1\nvalue = [1, 0]\nclass = Fake", fillcolor="#e58139ff"] ;
845 -> 847 ;
848 [label="gini = 0.0\nsamples = 4\nvalue = [0, 9]\nclass = Real", fillcolor="#399de5ff"] ;
840 -> 848 ;
849 [label="gini = 0.0\nsamples = 6\nvalue = [10, 0]\nclass = Fake", fillcolor="#e58139ff"] ;
839 -> 849 ;
850 [label="gini = 0.0\nsamples = 7\nvalue = [0, 12]\nclass = Real", fillcolor="#399de5ff"] ;
838 -> 850 ;
851 [label="gini = 0.0\nsamples = 12\nvalue = [20, 0]\nclass = Fake", fillcolor="#e58139ff"] ;
837 -> 851 ;
852 [label="diversity <= 0.1\ngini = 0.1\nsamples = 10\nvalue = [1, 16]\nclass = Real", fillcolor="#399de5ef"] ;
836 -> 852 ;
853 [label="gini = 0.0\nsamples = 2\nvalue = [0, 5]\nclass = Real", fillcolor="#399de5ff"] ;
852 -> 853 ;
854 [label="diversity <= 0.1\ngini = 0.2\nsamples = 8\nvalue = [1, 11]\nclass = Real", fillcolor="#399de5e8"] ;
852 -> 854 ;
